-0.250000000000001 -0.083333333333333 0.166666666666667 -3.39393137073226e-33 -5.81017687631264e-34 -1.0008158902901e-32 -5.77142159251613e-33 -9.16917919736031e-34 -2.01068308708152e-35 -3.66589668247439e-34 -1.03929863660014e-33 2.39066163598483e-34 7.38098545254198e-32 6.49366589281248e-33 -1.37579858820241e-33 3.46424293477732e-32 2.33446125107201e-33 -1.82977450648997e-34 -2.07277857616371e-34 1.24123387239202e-32 -6.20943135878365e-34 2.00461753623128e-33 6.61145042676487e-33 2.61312394187795e-34 3.90356988526714e-33 -3.32363974728897e-33 -8.7742424828428e-34 4.80830086732103e-34 2.18171751512617e-35 1.68396618721398e-32 2.07062154402995e-33 1.54577507133131e-33 -6.79412224888266e-34 1.60092926627189e-33 -1.53472542443358e-34 8.26043390209838e-34 1.62134736570249e-34 -5.53164131609952e-34 -9.03767076686208e-34 1.71309493722735e-33 -1.49805000068792e-34 -2.72526610294639e-34 5.52227409549141e-34 -4.499340985117e-32 -2.31807485982155e-35 8.8845332403087e-35 -8.7550819249244e-35 2.29080339088247e-34 4.54211017157732e-35 7.37270056835739e-35 2.52025988816298e-35 -1.7914962204905e-34 -1.30597422376356e-34 5.12045339218188e-35 3.01302712002769e-34 -2.76711370183566e-33 -2.25694915357879e-35 3.22532139978619e-34 -1.58987961937416e-33 1.49303063980991e-33 -8.63753248984217e-34 -1.10026271236966e-34 -1.19336186495479e-34 7.67362712216789e-35 -2.31396062959367e-33 -3.86496900177484e-32 1.08615678015979e-34 8.17203672691654e-35 -6.90138610839519e-34 2.2628266253329e-34 -3.26232596195008e-33 9.22057768785002e-34 -3.63985948260367e-34 -8.80210169895729e-35 -2.86721880075169e-33 -1.85572354428437e-34 5.12515536958517e-35 -6.82539039861453e-34 9.12888912848588e-34 -1.66873178042732e-34 -4.26845508670589e-34 -6.25903722038835e-34 -2.48352568969979e-34 1.49170233119348e-35 -7.42677330849521e-34 -1.77546666748198e-33 -1.75158062227327e-33 -8.10738453762132e-35 7.99806356299484e-34 6.83361475496475e-36 7.83913672676367e-34 6.40221243231851e-34 1.43504350348385e-34 8.96243912840945e-34 -5.43548587820226e-35 6.85548305399558e-35 3.31771525576082e-33 6.63543051152165e-34 -2.0463946054595e-32 1.18945922371006e-33 5.0508641266132e-34 3.48886723324055e-35 -0 8.57640678359941e-35 -5.43924746012489e-34 -6.9744430822988e-34 1.65190627798674e-50 2.48264406893667e-35 1.64381130018989e-34 -2.27500474680742e-33 8.4917711903402e-34 -6.0549714010856e-35 3.97599209222131e-34 3.35180459193467e-33 5.10164548256873e-35 -1.8249549796516e-33 5.73829322297408e-34 1.3659244356555e-34 2.72949788260935e-35 5.9111496672625e-34 6.065550850243e-35 -9.12371695334227e-34 1.12639395178844e-33 1.31984505710326e-33 -2.40929322144536e-34 1.07205084794993e-35 -4.86678171127443e-34 4.64555367444968e-34 -4.35520656979658e-35 2.47488580622124e-34 2.67660063682235e-34 6.8672379975038e-35 1.2339869497192e-33 -3.97874023449462e-34 2.36622310843123e-32 1.23897104576669e-35 -4.80777189486316e-35 8.35212246146252e-34 -1.87938036809467e-34 3.22085452125307e-36 -3.41739717671055e-34 -2.8945372894648e-34 -4.65247807085999e-35 1.70775819287462e-34 3.45313220497555e-34 1.0325542377623e-33 2.6742496481207e-34 -1.69788404032771e-34 -1.43410310800319e-34 3.04453036862972e-34 -2.57433262830081e-35 -1.03518734510814e-33 -4.84068573668618e-35 8.81620763116716e-35 -4.99350000229308e-35 -1.81284738783813e-34 -4.81012288356479e-35 -0 8.32061921286048e-34 -1.32031525484359e-34 -4.10623686629241e-34 5.48297584997548e-34 3.38542373036819e-35 -1.33648197558725e-34 4.33463541865719e-35 -6.27713983339102e-34 7.37181894759427e-34 -9.91088674537041e-35 0 -2.20616779762327e-34 1.85325500614765e-34 -2.38860452087089e-35 -2.05664491619867e-34 1.41059322098675e-34 5.15266193739442e-34 2.44502824971036e-35 2.70974957751554e-34 6.08494650703157e-35 3.0327754251215e-35 2.88184195047592e-34 9.4039548065783e-37 -2.49204802374325e-36 9.06447203806082e-34 4.65495762925626e-36 3.19957807350318e-34 -3.98657154137871e-34 -5.81681624560901e-34 -2.75535875832744e-34 1.33357483112087e-33 2.53906779777614e-34 -1.58691737361009e-35 1.1390540259468e-34 8.43534746150074e-34 -1.92951520215724e-34 1.60981600356411e-33 -2.96553714825447e-34 -5.38141313806443e-35 4.30324971949023e-34 1.33871821992279e-33 -4.23177966296024e-34 1.06828926602729e-34 -7.77295639481238e-35 4.16536423213878e-35 -6.13580592315883e-34 -2.24636970442139e-35 -4.73959322251546e-35 5.5483333358812e-35 1.13881892707663e-34 -2.7741666679406e-36 2.49204802374325e-34 -7.03415819532057e-35 7.1159726021378e-34 5.43930623484243e-35 -1.65538991954549e-34 -9.74249717961512e-35 7.10656864733122e-34 -4.89299523529777e-36 -2.36979661125773e-34 -7.12349576598306e-35 -2.46712754350582e-34 1.96213517039256e-34 9.83558163852086e-35 -3.88383333511684e-34 4.26563390026392e-34 -2.79297457755376e-35 5.26997627360648e-33 -7.30687288471134e-35 -2.91522599003927e-34 -1.75816339063788e-33 4.55527570830653e-34 -3.68070791129475e-34 8.74567797011782e-35 -1.9230147183972e-33 1.47427562744254e-34 -2.93403389965243e-34 -8.20894724953236e-34 -9.19236582343029e-35 1.10026271236966e-35 -1.64757288211252e-33 -4.39035385088616e-34 7.37846049067642e-34 4.74303154349162e-34 -1.88956998948647e-35 -2.00868474668512e-33 -6.72382768670348e-35 -1.57151839761432e-34 -2.93403389965243e-34 2.99380044055205e-35 -1.63188003252904e-35 -1.13223615871203e-34 -2.25694915357879e-35 -6.39468926847324e-35 -1.40212966166082e-34 -5.21919491765096e-36 -4.85046222244667e-34 1.49616920972661e-33 2.40929322144536e-34 2.11377394164864e-34 -1.40589124358346e-34 2.9481398318623e-35 -2.93403389965243e-34 -3.09443377724198e-33 1.56481807981463e-34 -1.29793384240394e-33 4.44336864610825e-34 -4.63097754449954e-34 1.92781073534855e-34 2.8532186630334e-34 -1.46963389412473e-33 -1.98438140098187e-34 1.63769872956561e-34 4.79601695135493e-33 -4.64414308122869e-34 3.56036667712931e-34 2.14880367330314e-34 -8.7550819249244e-35 -8.47202288524639e-34 -8.08507953231446e-34 3.29333844166065e-34 -2.99631159035899e-33 1.07723036993324e-34 3.565274366044e-34 -6.0020741552986e-34 3.94571135774412e-33 1.01298225682111e-35 -1.76077225737681e-34 3.06804025564617e-34 -6.43982825154482e-34 3.86659764919791e-34 2.21531010766427e-33 4.64320268574804e-35 -7.60309746111856e-34 2.18359830608748e-34 0 -5.95599477674637e-34 5.28972457870029e-35 -6.51082811033449e-34 1.47847801974673e-33 -2.40619816608741e-34 2.89524258607529e-34
