0.250000000000001 -0.0833333333333333 0.166666666666667 -9.96313746926446e-34 -8.41653955188758e-34 -7.11820604140436e-33 4.51507967898016e-33 -9.75977694657221e-34 -7.1584887634391e-34 -1.79451555343706e-33 -6.14022412887899e-34 9.21002395263155e-34 1.45957324939907e-31 2.41068618225108e-32 7.79705402900423e-34 3.3796460286971e-32 6.59523448219528e-33 6.53984812712041e-34 1.7211705834175e-33 1.76255209879667e-32 8.21247373258483e-34 -1.32642782546787e-34 4.10012429566814e-33 1.33492811899225e-33 -3.76284557905845e-33 2.26611800951521e-34 -5.9441810585206e-35 -7.91916585153559e-34 5.99972316659696e-34 1.59439351768132e-32 3.27080201090348e-33 -1.53340887076066e-33 1.7103259133472e-33 1.17255561494523e-35 -5.79283616085223e-35 -5.46393284149216e-34 1.40673172204429e-33 -4.05207596407828e-34 -4.37871645681302e-35 -1.23765449209377e-33 8.11443750372625e-35 -8.20965254614286e-35 -3.55409982287149e-34 8.07574022969718e-32 4.70197740328915e-36 1.20164910012808e-34 5.90392037700494e-35 -7.15876059650773e-36 4.78896398525e-35 -1.38238135656701e-35 2.35486783300229e-34 -1.5107453396768e-34 2.06887005744723e-34 4.79072722677623e-35 -1.09849947084343e-35 3.11623552402988e-33 4.30230932400957e-34 5.48620845944024e-34 2.21307529630229e-33 2.42133028359778e-33 1.75853954883014e-34 5.21368478788148e-35 3.84527712040987e-34 3.2213247189934e-34 1.42686647090594e-33 8.98830000412754e-33 7.78103791847428e-35 -7.16346257391102e-35 -2.83623276966402e-34 1.11084216152706e-34 4.84296619572678e-33 1.86260018623669e-33 -3.93595916273611e-34 5.24740678207069e-35 -1.56270218998315e-34 3.61915976176966e-34 1.51752647271311e-34 -9.11243220757437e-35 2.29882026235508e-33 4.58901239617513e-34 1.33912316445675e-34 4.55562835661178e-34 -5.22575197207664e-34 -1.09805866046187e-34 1.98459886743678e-33 -1.29276166726032e-33 1.92477795992343e-33 8.93375706624939e-35 4.4513032329763e-34 -4.22149408739054e-35 5.81810928939491e-34 2.60959745882548e-35 -5.12515536958517e-36 1.12487756407588e-33 -2.1741943512809e-34 3.36109099730617e-34 1.81293554991444e-33 7.74133559677526e-34 3.47233978266799e-32 2.57362733169032e-34 1.55188764195558e-34 1.8752661378668e-34 -1.25072598927491e-35 1.70523088002035e-34 -3.94966101876289e-35 2.27052611333079e-34 1.09118789598131e-33 -5.25622298970186e-35 5.40727401378252e-35 -3.5546949168866e-34 -2.96224576407216e-35 -1.0903444787846e-35 2.80449442219181e-34 1.65721193578926e-33 1.62159445695935e-35 -1.28341942590716e-33 1.93933057998661e-34 3.53000953551933e-34 -1.48535466169904e-34 1.01642939400489e-33 1.99404984201739e-34 -8.44980604201585e-34 1.1055348045331e-33 9.52173934053069e-34 3.78603220512842e-34 1.00152118690059e-35 1.90647551288113e-34 6.65564901435579e-34 -5.55062003973553e-34 2.00284400912948e-34 8.11091102067378e-35 1.71005040685872e-35 7.1411281812454e-34 4.51921741909505e-34 7.2951401449853e-33 3.55704590558824e-35 -4.6950897410773e-35 7.39009788474956e-34 5.42420113243436e-34 4.63144774223981e-36 1.31396758534915e-34 1.5008711871299e-34 2.49851324267277e-34 2.05998332015501e-33 2.06172305179423e-33 2.53060423845022e-33 -6.21542637997285e-34 1.1682180407907e-33 2.86820621600638e-35 2.45084694674693e-34 -5.28972457870029e-36 5.33768474821384e-34 3.52201617393374e-34 1.7191604880776e-35 1.44395375066308e-33 -2.1682066769314e-34 1.4991549653777e-33 9.03249859171846e-34 0 -1.87891017035434e-34 2.2033466111813e-34 1.52485127188667e-34 1.7932166321794e-34 -1.11084216152706e-34 -3.60641666832278e-34 6.55961112589361e-34 -2.13528548826869e-34 -1.25711773980751e-34 -9.01365394790684e-35 1.71207813461389e-34 5.29501430327899e-35 2.68718008597975e-34 -3.618171611831e-35 -3.62522457793593e-33 -6.11433386580213e-34 -1.96939384800889e-34 -8.63283051243888e-35 -5.61283858838257e-34 2.67895162552399e-35 3.6423280207404e-34 1.52814265606897e-36 -6.85313206529394e-35 -1.26080585333322e-33 -6.04204096322656e-36 -1.00688144114034e-33 8.6161384926572e-34 -2.80378912558132e-34 5.61404347009216e-34 -7.4757914229245e-34 7.7582627154271e-35 1.10885851481005e-33 2.42798358162343e-35 -3.33135099023036e-34 -5.90333262982953e-35 9.27056925853859e-34 -5.73523693766194e-34 -3.29931876917046e-35 -7.72628926908473e-34 7.68514696680595e-34 4.37283898505891e-34 -3.06945084886716e-34 -1.89660136033422e-34 -4.02834567187105e-35 -1.06631967014119e-33 -5.605227262461e-34 -2.27105508578866e-34 2.3025583343907e-34 9.92208700248184e-34 5.89510416937377e-36 1.88079096131566e-34 2.84469632898994e-36 -4.31599207825314e-33 2.38543068612367e-34 1.09717703969875e-34 3.00926553810506e-36 1.83720950825892e-33 9.63920061353661e-35 4.30513051045155e-34 -6.87862559902739e-34 3.05287637852056e-34 1.97942963102904e-34 8.15196148745641e-34 1.80320833416139e-35 5.4589957652187e-35 0 2.34678630934039e-33 -5.9862049815625e-36 5.55714954351236e-34 1.36489000062677e-33 -9.76130508922828e-35 -6.70031779968704e-36 6.6297881386377e-35 -4.70797242447834e-34 5.59274130840336e-34 2.66508079218429e-34 6.42913125295234e-34 4.3563820641474e-34 4.33992514323589e-35 -1.9050061449426e-34 -1.03264239983861e-34 -1.75677630730391e-34 5.06323620465561e-34 4.61263983262666e-35 2.42716073557786e-34 9.16885593641384e-36 -5.57360646442388e-35 -2.33347383581732e-34 -6.25976455751792e-35 3.72272632420687e-35 2.46383615932351e-35 4.68316949367599e-35 -7.52316384526264e-36 -1.31655367292096e-36 -1.64730839588358e-33 -8.2152949190268e-34 -6.16664336441372e-34 -7.75849781429726e-34 4.69727542588586e-35 -6.41819915548969e-35 2.28480836969328e-34 -2.07216144162953e-34 -1.18214324074413e-33 -7.89932203752577e-35 -7.74885876062052e-35 -1.57739586936843e-33 2.12562733280874e-33 1.49405331989513e-34 -1.87608898391237e-34 -1.01354061663775e-33 -9.33195577759043e-34 -1.21637216687213e-34 2.50380296725147e-32 3.58802018173241e-34 -2.43169373566822e-34 9.13241561153835e-35 1.54553997246114e-34 -1.85880921695528e-34 5.29501430327899e-34 -1.93679665497662e-33 7.2575021219768e-35 1.99197849240154e-34 -8.40810537992043e-34 -7.74592002474346e-34 -1.08461394382434e-33 -1.8514036025451e-36 -1.88036778334936e-33 -2.02772775516845e-34 6.43230508769956e-35 2.24133418049606e-33 -1.17905609870528e-33 -1.41059322098675e-34 -1.17502415308196e-34 -1.22192637767977e-34 8.64061816251308e-35 1.28671962629709e-33 9.52150424166053e-35 1.02065235746022e-33 -5.05777015592429e-33 -1.82383238254657e-33 -7.54210693672614e-33
