-0.250000000000001 0.0833333333333333 0.166666666666667 2.53831842012749e-33 5.14543047335107e-34 1.90077436527964e-33 2.44486074176537e-33 -2.20728451725641e-35 -1.42575709811235e-34 2.57795315090134e-33 2.44414369021136e-33 9.6582730093787e-34 1.68454923241198e-31 8.02980191046705e-33 1.36545423791517e-33 -1.45168893151355e-33 1.06805416715713e-34 -2.55317372998601e-35 8.71825956438489e-34 -3.52771732153523e-33 2.17330097557428e-33 -6.846079099189e-34 -3.98480829985247e-33 3.53459396348754e-33 -1.55408581639162e-33 1.12242783384877e-32 -9.19506946043718e-34 7.13319359437735e-34 5.45429378781541e-34 3.38942981511579e-32 2.29753897351269e-33 -1.54577507133131e-33 3.84528446724956e-34 3.12681497318728e-34 7.52316384526264e-35 -1.11860042424249e-33 5.27972088433162e-34 -3.39036080664164e-34 4.55386511508554e-34 -4.30160402739908e-34 -4.10576666855209e-34 -1.99740000091723e-34 -8.40133894056351e-34 -5.85491166653046e-32 -4.74429519991875e-35 -2.04536017043078e-35 -1.38238135656701e-35 -3.9270915272271e-34 -3.75217796782474e-35 3.13339774155189e-34 -7.56077966448895e-35 -1.49565711261929e-35 -6.06437535589218e-34 -3.64638347625074e-35 5.02171186671281e-34 -1.83612217598441e-33 3.15972881501031e-34 -4.49015332127097e-34 -5.94141864679617e-34 -9.98429636757926e-34 -5.32734039792661e-34 -6.48872881653903e-35 -1.32595762772754e-34 -6.39468926847324e-35 -6.012653604456e-34 -2.21711400101813e-32 3.29138418230241e-35 2.06887005744723e-36 1.04432681368578e-33 8.88673729221649e-35 -3.32006624446247e-33 -1.91370480313868e-34 1.0226271879696e-33 -1.89583728900619e-34 1.52193604589663e-33 -1.21719501291771e-34 1.28128884239629e-35 3.10894745905479e-34 -1.77598388499634e-33 2.3839025434676e-35 4.01736949337025e-34 -7.05132041284257e-34 6.62273517253277e-34 1.40882997946051e-34 -2.47559110283174e-33 6.65800000305744e-34 -9.15004802680069e-34 -8.46473482027129e-35 8.75978390232769e-34 2.04223294504704e-35 1.91078957714864e-33 8.21153333710417e-34 1.12753418130874e-34 1.24376706271805e-33 1.1958068932045e-33 1.75195678046554e-34 3.29467556648471e-33 1.86160689351024e-33 9.57886836598066e-33 1.9297385460839e-33 4.35685226188773e-34 4.9840960474865e-36 -2.00774435120447e-35 -5.36025423974963e-36 -3.5546949168866e-34 -6.05473630221544e-34 -3.8067209057029e-34 2.91710678100059e-34 5.19098305323122e-35 -2.0538237297567e-33 8.03097740481787e-34 -1.46878019135245e-34 6.38998729106995e-34 3.65085035478386e-33 8.08975212235898e-35 -4.60206038346926e-34 6.69467542680309e-34 -5.92449152814433e-35 4.50684534105265e-35 1.08130786596265e-33 4.8524406801944e-35 -2.76476271313402e-35 1.66873178042732e-34 1.13129576323137e-33 -2.06510847552459e-34 9.02779661431517e-36 -1.1687940330226e-34 -1.25072598927491e-34 2.90347104653105e-34 3.84034004413641e-35 2.46030967627105e-34 -6.97538347777945e-35 1.22636974632588e-33 -6.38803345593999e-34 2.7571643176503e-32 -9.99170198198944e-36 -4.56738330012e-35 -1.20690355987626e-33 1.06969985924828e-34 -1.33301059383247e-35 1.0814548027565e-34 2.32277683722484e-34 -1.44337849311515e-35 5.97715367506117e-34 1.13750237340371e-33 -2.16667118743564e-33 2.90934851828516e-34 -1.69788404032771e-34 1.31937485936294e-34 7.91577895843728e-34 5.71290254499632e-35 1.29398418138517e-33 1.20349462625887e-33 -8.28723517329713e-35 1.86424000085608e-33 1.31843446388228e-34 1.6033742945216e-34 2.55035254354403e-34 -5.95082260160275e-34 1.01562711911046e-35 1.50228178035088e-34 -3.47146991684838e-34 -1.07910381405486e-34 1.96271924414813e-34 -4.83745312722142e-34 4.18475988892734e-35 -3.40628875509528e-34 7.30275865448346e-36 6.6562367615312e-35 -2.57386243056048e-34 2.53404255942638e-34 2.38860452087089e-35 -2.32324703496517e-34 6.91190678283505e-34 6.10246137285882e-34 6.72382768670348e-35 2.94955042508328e-34 4.8259920573009e-35 -1.05136214737545e-34 1.01398142701931e-34 -3.99668079279578e-36 6.23012005935812e-36 1.08418194965041e-33 8.13442090769023e-36 4.65531027756151e-34 2.57198163959917e-34 3.89182669670243e-34 -6.61286101998586e-34 6.46333813856127e-34 3.66754237456554e-34 -3.49121822194219e-34 -5.63531991784205e-35 3.78979378705105e-34 -1.57968808335253e-34 1.08056142704988e-33 -2.23814124396564e-35 -3.33135099023036e-35 3.91204519953657e-34 -8.16292063552695e-34 -1.42469915319661e-33 -4.81482486096809e-35 9.01662941798236e-35 -1.64422272321267e-36 -4.82524543471714e-34 -1.46548880717015e-34 -2.23814124396564e-35 -2.3303000010701e-34 2.07427733146101e-34 0 4.06721045384511e-34 -1.44820904021306e-35 -1.6707066109367e-33 3.3487776939813e-34 9.70135487733634e-34 -5.07813559555228e-35 2.7457197046507e-34 -2.16270389400162e-34 -3.15972881501031e-35 7.12349576598306e-34 -4.13127489596493e-35 -1.81120169574698e-34 8.90987983724831e-35 9.98700000458615e-35 -2.84375593350928e-34 -5.89627966372459e-35 1.64686758550202e-33 -1.18489830562887e-35 -2.33218079203142e-34 -1.4574249159235e-33 2.60301469046087e-34 2.53718700681483e-34 -3.10330508617084e-35 8.53408898696981e-34 1.68774540155187e-34 -6.69937740420638e-34 -4.57666970549149e-34 -4.27644844829148e-34 -1.08803757112111e-34 4.53082542580942e-34 1.87044661102842e-34 -8.38233266627865e-34 1.8611895930157e-34 -1.00145869423701e-34 -3.34780791114187e-35 -3.4230395495945e-34 8.99958474989543e-35 2.20052542473932e-35 -3.94637330800043e-34 1.81320003614338e-36 -8.65163842205204e-36 4.96528813787334e-35 6.01853107621011e-35 -1.25401737345722e-34 5.16700296847445e-34 4.1575246923718e-35 1.41529519839003e-33 1.45704875773124e-33 2.11377394164864e-34 -1.3936661023349e-34 4.42220974779345e-35 5.75804152806789e-34 -1.79639414034647e-33 1.50463276905253e-34 -1.22528829152312e-33 9.28170339409278e-34 3.45595339141697e-35 3.56644986039482e-34 4.2826197936333e-34 -2.02708123327549e-34 -2.30617297951948e-34 -3.80860169666421e-36 -2.48264406893667e-32 1.00716355978454e-34 -1.00571182426127e-33 3.33064569361987e-34 3.48416525583726e-34 4.26563390026392e-34 4.78587831257909e-34 -1.83485998892522e-33 -5.09753125234085e-34 -4.59618291171514e-35 -4.9913841124616e-34 -1.49240762780398e-33 -1.659703983813e-33 2.13440386750557e-35 1.12999103757395e-33 9.59203390270987e-34 2.8588022611998e-35 1.37754272794544e-33 -1.78322796620581e-33 5.34849929624141e-35 -4.60793785522337e-36 4.76075212083026e-36 -4.43854911926988e-34 8.31591723545719e-34 4.69727542588586e-35 1.0460018931357e-33 7.7809203690392e-33 7.13505475245623e-33 -1.3035829743804e-32
