3.19514380231479e-16 0.166666666666666 0.166666666666667 1.11191656336371e-32 2.23327752739982e-33 3.07615116666684e-32 1.33336956041986e-32 1.7186991065449e-33 6.72664887314546e-34 3.49738368981226e-33 4.03415114459618e-33 2.39066163598483e-34 1.91728300794259e-31 1.79448616607829e-32 1.67061257138864e-33 -4.47340466688207e-34 2.41837979277722e-33 1.57498904468512e-33 1.50962127320383e-34 1.10535142741437e-32 -2.90441144201171e-34 1.57245879309497e-34 2.46648102161286e-33 2.09737579545467e-33 4.77238951490341e-34 4.39514986783752e-33 -8.70059776176378e-34 9.51092479250313e-34 5.59406006612818e-34 5.73265085009013e-34 1.97134516863125e-33 4.45183220543417e-34 6.75873619550306e-34 -4.81529505870842e-34 1.41435480290938e-34 -3.95812457808881e-34 8.21561699275738e-35 3.21192076418682e-34 6.34038142946525e-34 -2.42751338388311e-34 -2.60771666786416e-34 -9.64845763154934e-35 -8.91371488756787e-34 4.96081185538541e-32 -4.10952825047472e-35 -7.35051311248562e-35 -2.53436582037285e-35 3.06804025564617e-34 -6.12197457908247e-35 2.7417230238579e-34 -2.80378912558132e-34 1.34690237685567e-35 -2.98693114543943e-34 -7.79705402900423e-35 4.60323587782008e-35 8.98665431203639e-34 6.5451525453785e-34 -5.21743167612472e-34 5.72136610432224e-34 -1.0233442395236e-33 -3.49121822194219e-35 -4.23177966296024e-36 5.30383051091016e-35 -2.52590226104693e-34 1.28452145186105e-33 2.44182150112131e-32 3.70280720509021e-35 -5.0687316407457e-35 1.242811973558e-33 -8.14617585119845e-35 1.34246156841309e-33 7.82879237647643e-34 1.25661815470841e-33 -8.46355932592047e-35 2.62941629358034e-33 3.49195290591146e-35 -1.729739937235e-34 5.73547203653211e-34 -7.71806080862898e-34 7.82714668438528e-34 3.9336742955917e-34 -6.73440713586089e-35 7.94728220703932e-34 5.55244756610908e-35 2.39307139940401e-34 1.23173000056563e-33 1.54897241596554e-33 -9.84946716553995e-35 1.01880095385768e-33 3.65892579576873e-35 1.64131925216614e-33 -6.95892655686794e-36 1.10190840446081e-34 1.50898209815057e-33 1.46078682976686e-33 3.42774152699779e-34 1.49757980294759e-33 5.99031921179038e-34 3.22198299582986e-32 1.86901250792042e-33 1.58080480298581e-34 -9.46978249022435e-35 -2.38625353216924e-35 1.60807627192489e-34 1.1284745767894e-35 -4.79013947960082e-36 3.8067209057029e-34 2.24989618747386e-34 -3.0929607358836e-34 -1.45347525490474e-33 4.39399788337371e-34 5.3955190702743e-36 -5.96398813833196e-34 4.16172019965123e-33 -5.46604873132364e-35 1.07910381405486e-33 6.16335198023142e-34 1.02032909651375e-34 -3.23731144216458e-35 1.84543209124293e-33 -3.79096928140188e-35 9.53843136031237e-34 -1.73826227127846e-34 1.2538528042481e-33 -1.42083765425416e-33 -1.41059322098675e-36 6.35172494995069e-34 5.36025423974963e-34 3.62933880816381e-34 -3.41363559478792e-35 -8.23257468598389e-34 2.64956426675344e-35 2.32324703496517e-34 -5.83276644669586e-34 5.14396327919833e-34 -3.19734463423662e-35 -7.45204643703789e-35 2.49251822148358e-34 4.23272005844089e-34 3.87913135771355e-37 4.97469209267992e-35 -4.19886582113721e-34 -2.40575020800359e-34 2.73241310859939e-33 1.68086288212781e-33 1.58268559394713e-33 5.36319297562669e-34 7.6404781814747e-34 2.696113843046e-34 6.69796681098539e-34 4.1612500019109e-35 2.13507389928554e-33 9.18061087992207e-34 -2.64486228935015e-35 1.69779000077965e-33 3.46089046769098e-34 1.73966110955594e-33 2.3803290406411e-33 -1.34288474637938e-34 5.43360508724094e-34 3.65555233218715e-34 5.18692759772088e-34 7.40561441018041e-36 -4.30972044854952e-35 2.25747812603666e-34 2.42716073557786e-34 1.09306280947087e-33 6.20734485631094e-35 6.6562367615312e-35 2.48193877232618e-34 4.29274373872976e-34 -7.46438912772153e-35 -5.14161229049669e-35 -5.28972457870029e-34 -3.00374071465619e-34 3.97317090577933e-35 -2.12223750097456e-34 1.43730633010918e-34 -3.18441419637758e-35 1.87786691911799e-34 -6.23012005935812e-36 -1.55753001483953e-35 -5.15430762948557e-34 4.27879943699313e-36 -5.48932351946992e-34 7.52304629582756e-34 1.00434237334256e-33 -9.64375565414605e-35 -7.48601822377666e-34 5.50131356184831e-34 -1.11084216152706e-34 -2.11024745859617e-34 -2.50615395595312e-34 8.55436626452149e-35 1.87444329182122e-34 8.11326200937543e-35 2.56257768479259e-36 -1.77998056578914e-33 -2.15116905517564e-33 -1.17784533952393e-33 -1.88455254323829e-34 -3.57555994161369e-35 1.75383757142685e-35 -8.33993038099258e-35 -2.22497570723643e-34 2.89641808042612e-35 -1.22063333389386e-34 6.44652856934451e-34 1.04031250047772e-35 -1.69271186518409e-34 7.7582627154271e-35 -2.86185854651194e-33 5.65556780803496e-34 -1.23191807966176e-34 1.20746779716465e-34 4.11857955697605e-34 -8.22023199530026e-35 -3.08073559463505e-34 1.16053618520807e-33 -1.15986027595635e-34 -4.52800423936745e-35 2.77710540381765e-35 3.27351666816991e-34 2.8945372894648e-34 1.75853954883014e-35 -1.32572840632913e-32 1.53049364477062e-35 3.13386793929222e-34 7.44134943844541e-34 1.78957259969185e-34 2.14410169589985e-35 -1.10026271236966e-34 7.87980883130212e-34 3.00525416363287e-34 2.66508079218429e-34 1.48560151551272e-33 4.08660611063368e-34 2.81178248716691e-35 -2.05946610264065e-35 1.51973787146059e-34 5.49620016142223e-34 -1.47927882527323e-34 1.08646924347768e-35 1.84129435112803e-34 1.4822983763869e-34 -1.09085875756308e-35 1.44867923795339e-34 4.69482341813844e-34 -5.2582801048158e-35 -1.1284745767894e-35 -4.51389830715758e-36 -1.561056497892e-35 5.03581779892268e-35 -8.29851991906502e-34 1.95889261960347e-34 -1.8196652550729e-33 -1.87580686526817e-33 -1.09179915304374e-34 1.22251412485518e-36 1.98999438650705e-34 3.66754237456554e-34 -4.86764863835817e-34 -1.80555932286303e-34 1.59820211937798e-34 -6.51694068095876e-34 1.73143264910018e-33 6.50636123180136e-35 -1.0469246562011e-34 -1.52031092495662e-34 -8.84926840978403e-34 -5.99854767224613e-34 -5.99502118919367e-33 3.83281688029115e-34 3.47778085214436e-34 -7.14477221373295e-34 -1.65721193578926e-34 4.11752161206031e-34 3.1566431423394e-34 3.13651280158157e-34 1.82258341979882e-33 4.0934754057463e-35 1.12900354924727e-34 3.41469353970366e-33 -3.64299805252037e-33 -2.25210023938165e-35 -3.84414273182533e-33 -5.67763771447165e-34 3.39294689421345e-34 -2.02484779400893e-34 -2.2212560509363e-33 8.84559498993771e-35 3.34075494503694e-34 2.88818961997036e-35 -3.16519486374163e-34 -4.55127902751373e-34 -8.13206991898858e-35 1.10737445319214e-34 3.95406912257847e-35 -2.6029716096563e-33 -4.52019748751005e-33
