-6.90094682787026e-17 -0.166666666666666 0.166666666666667 -1.06096005874992e-32 -1.31539298093881e-33 -2.8492219822406e-32 -1.22251111265091e-32 -1.82757192395012e-33 -3.77460052256668e-34 -3.26087422642681e-33 -4.58963834691694e-33 7.36323783883327e-34 1.82197298558244e-31 1.97253829539734e-32 2.48264406893667e-34 3.5758179412226e-32 2.77694083460854e-33 9.37759434576111e-34 8.85427160761472e-34 2.23422097030564e-32 5.40821440926318e-34 3.70116151299905e-34 3.7669891966451e-33 3.63774359277219e-33 -1.19309737872585e-33 -2.16680049181423e-33 9.0740817043788e-34 -2.2879057973077e-33 8.21212108427958e-34 9.02892508889196e-33 8.36758021217583e-34 1.13769045249984e-33 9.34191809221365e-34 7.37928333672199e-34 4.51389830715758e-36 -1.89301610256421e-34 1.02288078900363e-33 -2.58738061559494e-34 -6.79576794097381e-34 8.2636077368456e-34 4.71608333549902e-35 -1.75195678046554e-34 4.13153938219386e-34 4.74449738494709e-32 -2.25694915357879e-36 1.24958722912255e-34 1.17502415308196e-34 3.35439067950648e-34 1.11577923780052e-34 4.83833474798454e-35 1.685423800209e-34 -2.00447438194083e-34 3.80154873055928e-34 1.29950900483404e-34 7.90919619007268e-34 7.43500176895097e-34 -6.43230508769956e-34 1.02451385640267e-33 7.78435869001535e-34 2.50622448561417e-33 3.33605296763365e-34 -1.41059322098675e-36 3.7624047686769e-34 4.06062768548051e-34 -5.64825035570109e-34 -2.41186050110756e-32 2.79767655495704e-35 3.10330508617084e-36 -9.12230636012128e-34 1.74443361662027e-34 1.2414160740164e-33 1.83106755027588e-33 -7.62637224926484e-34 7.2786610202916e-35 -3.16617052405281e-33 3.43209085609583e-34 1.34535328451611e-34 -3.27868884331352e-34 3.2532041257877e-33 -1.66873178042732e-34 -2.30161793891004e-34 3.96141596227111e-35 -6.70551936218943e-34 -2.98340466238697e-35 3.21826843368126e-34 -1.7421766674667e-33 5.42467133017469e-34 -1.36239795260303e-35 1.8090858059155e-34 -5.47348981576962e-35 -1.10237860220114e-33 9.56852401569342e-34 2.56257768479259e-36 4.5726730246987e-35 2.21156331669354e-33 -8.37892373266127e-35 1.54365918149983e-33 1.50218774080282e-33 1.93754382857336e-32 4.70385819425047e-34 5.28220141485503e-34 2.61665042493041e-34 2.27105508578866e-35 6.70031779968704e-35 -4.88065254461414e-34 -4.31112553164074e-36 6.40221243231851e-34 2.79297457755376e-35 5.67763771447165e-34 -8.53126780052783e-34 4.22942867425859e-34 -1.01915360216292e-35 1.44484712636971e-33 2.28022394172507e-33 7.06942302584524e-35 -1.3528470610026e-33 4.14432288325906e-34 -2.13939971849656e-35 2.76123623008155e-35 7.78541663493109e-34 5.27702923971141e-34 -1.21649559377897e-33 1.31412627708651e-33 1.22557041016732e-34 2.87286705110739e-33 -8.46355932592047e-37 -5.19251119588729e-34 7.95104378896195e-34 -3.33899170351071e-34 3.05093681284171e-34 1.63096902440715e-33 2.16290960551301e-36 1.61865572108229e-33 -3.25810511963611e-35 1.35800630570836e-32 1.11507394119002e-34 6.00971486857894e-36 -4.08860445103008e-34 8.96243912840945e-34 -5.98326624568544e-36 1.47077853174885e-34 9.64845763154934e-35 4.89029527171073e-34 2.60433124413379e-33 7.16017118972872e-34 5.07813559555228e-34 -7.84642479173877e-34 3.13739442234469e-34 -7.45733616161659e-35 7.61132592157431e-34 1.07557733100239e-35 2.50709435143377e-34 4.00608474760236e-34 -5.11340042607695e-35 2.12223750097456e-33 -1.5656409258602e-34 6.97467818116896e-34 2.1252937862867e-34 -9.13688249007148e-34 -4.77344745981915e-34 5.15783411253803e-34 2.47991104457101e-34 1.7244502126563e-34 -7.46173508188256e-35 -6.80017604478939e-34 3.22226511447405e-34 -5.43989398201784e-34 -8.03303451993181e-35 1.16484143326796e-34 2.84963340526339e-34 4.2360114426232e-34 -2.47817719040355e-34 3.5229565694144e-35 1.20605720394367e-33 2.49322351809407e-34 -6.1125706242759e-35 5.15571822270655e-35 -2.76969978940747e-34 8.59286370451092e-35 -4.26939548218655e-35 9.52150424166053e-36 -2.74125282611757e-35 5.77637923994072e-34 -2.93873587705572e-36 -3.12375868787515e-34 7.3944472138476e-34 -5.56573065227337e-34 6.8883968958186e-34 4.58160678176495e-34 8.46355932592047e-35 6.42701536312086e-34 -8.39302966487115e-36 -1.0391370061269e-34 -7.70712871116633e-35 1.86341715481051e-33 -4.83998044007569e-34 1.66567549511518e-35 6.06367005928169e-34 2.01624053713357e-33 -1.53049364477062e-33 -1.65509604595778e-35 2.00542274986159e-34 6.27545006026171e-35 2.08498259524815e-34 5.34849929624141e-35 -7.70183898658763e-35 1.41482500064971e-34 5.14502122411407e-34 1.73385416746287e-35 -4.79601695135493e-34 -5.17217514361807e-36 3.88284591986215e-33 -4.19416384373392e-34 2.63707463927595e-34 3.94966101876289e-35 4.76463125218798e-34 4.11011599765013e-35 4.97657288364124e-34 -8.8895290912997e-34 2.25959401586814e-34 -1.96213517039256e-34 3.5176668448357e-34 4.66060000214021e-34 -2.28516101799853e-34 9.8788545243105e-35 3.37607855027915e-33 9.38044491956185e-36 3.78979378705105e-34 1.1913870344454e-33 -1.23643197796891e-33 -4.64555367444968e-35 -1.35416949214728e-34 1.99128743029296e-35 3.83244953830652e-34 4.89005649942072e-35 1.1913870344454e-33 5.70526183171597e-34 4.33992514323589e-35 2.47135932316878e-34 -2.67577779077677e-34 -5.01936087801117e-34 5.55354959206297e-35 8.36513026376928e-35 9.79233814008998e-34 1.61983121543311e-34 1.51697545973616e-35 -1.70540720417297e-34 -9.93397418910453e-35 1.05165602096316e-34 7.45733616161659e-35 5.19098305323122e-35 3.10330508617084e-35 -3.30784110321392e-35 -5.37577076518049e-34 -6.86000366948118e-36 1.8196652550729e-34 1.35952974638702e-33 -2.2185104883069e-34 4.58442796820692e-35 -1.94085872264268e-34 1.87044661102842e-34 1.0923235337268e-33 -1.50463276905253e-36 7.50670692435113e-35 -3.35721186594845e-34 -5.66776356192477e-34 -2.02420127211598e-34 1.4238175324335e-34 1.97640420244361e-33 1.35554702458965e-33 1.94238686529875e-34 4.93707627345361e-33 4.00067747358857e-34 -3.95494339650189e-34 -3.59924615278276e-34 1.70858103892019e-34 1.68848008552113e-34 8.45165744561839e-35 9.88001532498194e-34 2.19366641520227e-33 -8.90510439144809e-35 1.74698443936156e-33 4.177119175647e-34 1.84237580593079e-33 -3.66313427074995e-36 -2.19071588784572e-33 -9.01016419905283e-34 -3.49827118804713e-34 -3.88813858317672e-34 -7.30958435492052e-34 -4.96646363222416e-35 -5.69080325120086e-34 1.13147208738399e-34 -2.32841921010879e-34 -3.7449721874542e-33 9.16885593641384e-36 -1.22745120112863e-33 2.63719218871103e-33 -1.75069763216558e-32 -3.14133820589169e-33
