-0.166666666666666 -8.30607284341148e-16 -0.166666666666667 -6.75626545331443e-33 -5.44610646966194e-32 -2.40139389940783e-32 -2.16920320226731e-32 3.27666699303011e-33 7.25133077663499e-34 -5.24269964779885e-33 -2.16257435452415e-31 -6.17405632566359e-33 -5.00884020357131e-34 2.00055032577743e-33 -3.90851871648411e-34 4.44336864610825e-34 3.34328225789121e-34 -5.29254576514227e-33 -1.10755518544857e-32 -2.02490656872647e-33 -1.30938315738095e-33 -1.76500476775966e-33 -8.39492808824771e-33 -3.56878615541708e-33 1.39028067860454e-33 9.33063334644576e-35 5.02579377084604e-33 -6.81269598053443e-32 -4.26899581410727e-33 -8.20053070998048e-33 -2.28175208438114e-33 -3.11741101838071e-35 -1.59197199931862e-34 -1.26295113052347e-34 1.1171898310215e-34 -3.84245593396789e-34 -2.82118644197349e-35 -1.02268008521539e-34 -8.77506532888838e-35 -1.51812744419997e-32 -2.5677498599362e-34 5.01418870286755e-34 3.58069685192679e-33 -1.61668089057291e-33 -2.49967535027336e-33 -9.57828061880525e-34 1.50862944984532e-34 4.13774011489445e-36 -8.15146557577715e-35 -2.61382923848844e-34 -1.11314613045467e-33 -1.67061257138864e-33 -1.13811363046614e-33 -1.65791723239975e-34 9.55912006088684e-35 -8.03121250368803e-34 -2.39871377228796e-34 8.60726351030849e-35 -5.23000946567852e-34 -3.7498269791231e-34 -2.17466454902123e-34 -1.4648540402207e-33 -1.27126581451771e-34 -9.14469952750444e-34 -3.5970127135162e-35 -8.60085706609651e-34 3.92427034078512e-34 -4.25822828585374e-34 -1.68706949230015e-33 -7.47438082970352e-34 8.85076716508133e-34 -1.82070556757338e-32 -6.59311271489205e-34 -1.70681779739396e-34 6.92248623199245e-34 7.49965395824619e-35 -1.12494809373693e-33 -9.55089160043109e-36 1.93157231727118e-34 1.80438382851221e-34 2.81178248716691e-35 6.41819915548969e-35 3.45595339141753e-36 -7.67362712216789e-34 2.43562429490378e-35 2.48264406893667e-34 -1.18335546929341e-35 -2.79444394549228e-35 4.8279903976973e-34 -9.70488136038881e-35 -6.64027942571879e-34 -3.05026678106174e-33 1.76042033979146e-33 -3.19557453500446e-33 7.93106038499797e-35 -5.73053496025865e-36 9.43921963710297e-35 -2.10910135160412e-33 7.57282848158488e-35 1.0927395485244e-34 -4.25246836353471e-34 4.70667938069244e-35 2.4738278613055e-34 -2.24025713379712e-33 -5.63884640089451e-34 -0 4.13186264314034e-35 4.41797796813049e-34 -4.11987260076195e-34 2.87364287737893e-34 -1.61430051451249e-33 1.32948411078001e-33 -7.54138400770039e-34 -5.1868100482858e-34 -2.44502824971036e-34 -5.72274731018445e-35 -8.38127472136291e-35 -4.044170764569e-34 -1.57818932805523e-34 -5.07578460685064e-35 -3.86267443680204e-34 2.14128050945788e-34 -1.32595762772754e-34 1.27893785369465e-34 1.07205084794993e-35 -4.1739784016784e-34 6.66857945221484e-35 -1.79556762088104e-34 5.99649055713219e-36 5.62356497433382e-35 -8.68079068195243e-34 3.10330508617084e-35 1.10496468977295e-34 -1.65274505725614e-34 -4.89005649942072e-36 -1.8805558624455e-34 1.41059322098675e-35 -1.00246158238125e-33 6.5557319945359e-35 -6.76466876855487e-34 -1.8561012413709e-34 -3.08802365961015e-34 -7.04027076594484e-34 -4.650302671627e-33 -5.35790325104799e-35 -4.73959322251546e-35 -2.11588983148012e-34 1.52520392019192e-34 -7.54573333679843e-34 -2.22873728915906e-35 -0 9.28170339409278e-35 3.56597966265449e-33 1.00152118690059e-34 -7.54667373227909e-34 -6.42384152837364e-34 5.92449152814433e-36 1.63628813634462e-34 -2.41211440788733e-34 2.59302298847888e-34 1.06969985924828e-35 -4.08131638605498e-34 -1.06665532887965e-33 -3.23371442945106e-33 -1.62045422743905e-33 -5.23330084986082e-34 1.39648728877688e-34 -3.44466864564963e-34 9.73779520221183e-34 -7.53565347274013e-35 -9.07334968350847e-34 1.87303269860023e-34 -5.94988220612209e-34 -2.13093615917064e-34 8.39796674114459e-34 -6.65416127931803e-35 4.02489265721551e-34 -1.31655367292096e-36 9.78599047059554e-34 8.67514830906848e-35 4.9239107367244e-34 -4.78402690897655e-34 3.10712544281101e-35 3.22649689413701e-34 1.08733227451062e-35 -1.82648312230767e-34 1.80555932286303e-35 1.0146867236298e-33 3.56568578906679e-34 -7.38539590734627e-34 1.0480002335321e-33 4.82466962615623e-35 4.10911682745193e-34 2.76476271313402e-35 -2.0115059331271e-34 -2.31337288241826e-34 2.28092923833557e-33 6.90485381673012e-35 3.56101319902227e-34 -4.64931525637231e-34 -1.07205084794993e-35 8.09680508846392e-34 2.23147031352472e-33 -3.07906051518513e-35 3.39247669647312e-35 1.37532839046208e-34 1.19420822088738e-33 -4.13774011489445e-36 -1.59308871895191e-33 -2.14895061009699e-35 3.1949939325209e-35 9.82633931418752e-34 8.90525132824194e-35 -4.22002471945201e-35 -6.27502394355954e-34 -1.99834039639789e-34 -1.48700035379019e-35 -1.26389152600412e-34 1.31213146317317e-32 -2.63780932324521e-35 -3.41375314422301e-34 -5.21919491765096e-35 -9.37713884170017e-34 -2.89077570754217e-34 2.21674724678067e-34 -1.49875529729842e-35 7.42677330849521e-35 -6.05144491803314e-34 -4.61822343079306e-34 -3.39576808065542e-34 -5.58594915510751e-34 -1.84317514208935e-35 4.26219557928776e-35 -6.012653604456e-34 1.09849947084343e-35 -1.23473926610373e-34 -1.49146723232332e-34 -1.36157510655746e-34 -1.70664735071309e-33 -8.02439463645326e-34 -2.84563672447059e-34 -7.75605866351931e-35 -1.4396867061696e-34 2.56147565883869e-36 -3.71456214859843e-35 -5.68927510854479e-34 -4.48533746785245e-34 9.968192094973e-36 -3.94966101876289e-36 -9.84503281821387e-34 3.57350282649975e-35 -6.15375700759283e-34 1.3793673155831e-33 -5.50863296733961e-34 -8.86792938260334e-34 1.17420865387608e-34 2.13657853205459e-34 8.79975071025564e-34 1.92122796698395e-34 -5.79650958069855e-34 5.53217028855739e-34 2.52778305200825e-34 -8.05730847827629e-34 1.18701419546035e-34 1.4651361588649e-33 1.60619548096357e-33 -1.50867646961936e-33 -2.41039524739926e-34 6.8216288166919e-34 -1.20041483105972e-33 3.03935819348611e-34 -2.78586283673128e-34 -4.36108404155069e-35 -5.09459251646379e-34 2.54964724693354e-35 -1.00866819255359e-33 5.83643965442805e-34 1.66544039624502e-34 -2.11191666057434e-33 2.18096519874164e-33 -1.15766210152031e-33 -2.28660687605004e-33 -2.53781589629252e-33 7.52066591976714e-35 1.06508938776023e-33 1.52530971468349e-33 1.25354717571689e-33 4.94471698673395e-35 -1.37180190740961e-35 9.97736567527655e-34 1.31692983111323e-33 7.41384287063617e-35 -1.35177671829488e-34 -5.56890448702059e-35 -7.76331734113563e-34 1.25274783955833e-33 -9.18836914263749e-34 -7.27654513046012e-34 6.37100452667211e-33 4.56822823921115e-33
