0.333333333333334 6.39748036225984e-31 -0.166666666666667 2.45400461844682e-32 1.09689727204326e-31 6.37870254530206e-32 1.39936019697029e-32 1.25820330884049e-32 5.98669868918984e-33 2.90676626288118e-33 -7.20949493268922e-32 8.83934135999134e-33 -1.96425106022404e-35 2.2736881931345e-33 -5.25304915495464e-34 -4.46687853312469e-34 7.44264248223131e-34 2.42904152653917e-33 -3.86386462483224e-33 -5.17123474813741e-33 -2.15468114505725e-33 -8.81620763116716e-35 -1.19817242864873e-32 -5.3058876260241e-34 5.05556610401649e-34 2.00774435120447e-34 1.56001589151793e-32 -3.72836104527714e-32 -5.87726016512829e-33 -7.63497686791286e-33 4.20060849151231e-33 -1.00857415300552e-35 1.68742214060539e-34 -1.91840678054197e-35 8.93751864817202e-34 3.14867916811258e-34 2.78168983178586e-33 -4.93707627345361e-35 -2.25694915357879e-34 -2.25572663945394e-32 1.49287782554431e-34 2.66884237410692e-34 6.66176158498007e-34 -6.93917825177413e-34 2.55196280438756e-33 1.56869721117234e-34 -7.29981991860641e-34 -7.7582627154271e-36 7.55201167049327e-35 -1.53472542443358e-34 2.38888663951509e-33 2.79607788263993e-33 1.08968326321226e-34 3.8556214706971e-35 -7.86170621829946e-35 1.66450000076436e-34 -1.73314887085238e-34 -1.17361355986097e-34 5.48344604771581e-34 4.23177966296024e-35 3.17383474722018e-34 -1.84343962831828e-34 1.27922063644799e-33 5.77214746027776e-34 -3.94966101876289e-35 -8.42594350669416e-35 2.07533527637675e-33 2.76663174915183e-33 1.52485127188667e-34 -8.88673729221649e-35 1.53148106002531e-33 1.74183812509366e-32 1.12584146944355e-33 3.35156949306451e-34 1.37284883206581e-34 -4.96528813787334e-35 -9.17770153140378e-34 7.66422316736131e-35 3.4230395495945e-34 4.91356638643716e-34 1.85145062231914e-33 1.3692158198378e-33 1.10966666717624e-35 -2.25694915357879e-34 -3.09390113136426e-35 1.02409067843638e-33 -1.34589970571825e-35 1.56715437483689e-35 1.72529656858889e-33 2.62840536843863e-34 1.06859489455851e-33 5.62732655625645e-34 3.46216000158987e-33 -2.80161344313513e-33 -4.44689512916071e-35 5.50131356184831e-35 -2.55330891183635e-33 -1.12859359559242e-33 4.07602666147628e-36 1.13881892707663e-34 -4.2882033917997e-35 -7.91577895843728e-35 8.316901711976e-34 -1.3692158198378e-33 -6.94011864725479e-34 -0 2.08062500095545e-35 3.88618432381848e-34 -9.29110734889936e-35 -7.40561441018041e-35 -9.30638877546005e-34 1.9737725644657e-33 -8.61458096264236e-34 -2.21181017050722e-34 -4.27879943699313e-34 3.19734463423662e-36 1.93862528337612e-33 4.24306440872813e-34 2.38751718859638e-34 1.11667261350714e-33 -1.31185169551767e-34 3.78603220512842e-34 8.53585222849604e-34 -8.76448587973098e-34 8.80210169895729e-35 4.27879943699313e-34 -5.36401582167226e-34 -1.194743070817e-34 5.09135990699903e-35 2.34722711972194e-34 6.04298135870722e-34 1.39930847521885e-33 5.50131356184831e-34 6.20896116104332e-34 -6.78495339294624e-35 -8.57640678359941e-35 -1.41999717579332e-34 -6.47744407077113e-34 1.489586441362e-34 -3.40937339461686e-34 6.39264491334772e-34 3.43855607502536e-34 -6.27502394355954e-34 1.77496120491113e-33 -1.12718153300349e-34 -1.91840678054197e-35 -1.10872627169558e-33 -4.14361758664856e-35 8.12125537096102e-34 -2.78592161144882e-35 -0 -2.29080339088247e-34 2.31788678072542e-33 2.25342267052633e-34 1.29774576330781e-33 -8.85711483457577e-34 4.14714406970103e-34 -4.49979237494772e-34 -6.26303390118115e-34 1.66167881432239e-34 3.54529096208002e-34 -1.11907062198282e-33 -9.28252624013836e-34 -1.80400767031995e-33 7.93405789559257e-34 -9.25701801272551e-34 3.31019209191556e-35 -5.98467683890643e-34 1.02503107391703e-35 -5.31793644312003e-34 -1.8509615672902e-34 3.06098728954124e-34 -1.11342824909887e-34 7.17980194538745e-34 8.56935381749448e-35 3.96986482791764e-35 -3.82364802435474e-34 -4.81482486096809e-35 8.9925317837905e-34 1.52344067866568e-34 -2.58984915373166e-34 -8.14617585119845e-35 2.23770043358408e-35 1.95649279750862e-34 5.58359816640587e-36 2.39800847567747e-34 -8.46355932592047e-36 1.38144096108635e-33 5.85049415876007e-34 -5.99654933184974e-34 9.38273713354596e-34 -2.13363704111265e-35 3.47899308069364e-34 4.08131638605498e-35 2.07639322129249e-34 2.07639322129249e-34 2.42057796721325e-33 1.77852295279412e-35 5.36025423974963e-34 1.06528000048919e-33 -5.00290395709966e-35 9.87415254690722e-34 4.85058707253995e-33 4.96528813787334e-35 3.72396610340501e-35 -2.20052542473932e-34 -7.99260926920703e-33 -5.04051977632597e-35 -3.79073418253171e-34 -6.80787553278728e-35 2.66047595368738e-35 -3.28809738989491e-34 -3.15394317875236e-35 -2.38761086080246e-34 -1.1912342201798e-33 2.02038091547581e-34 3.25847034047938e-35 9.21587571044673e-35 4.15128180981592e-33 2.48264406893667e-34 -3.93179350463039e-34 -4.80165932423888e-34 -3.5409195924629e-34 1.86903601780744e-34 -2.9292731475316e-34 2.89171610302283e-35 3.22743728961767e-34 -1.35882444977653e-33 -2.1753992329905e-34 -3.69105226158198e-35 7.56077966448895e-34 4.21297175334708e-35 4.17662877409751e-34 4.57737500210199e-34 5.00290395709966e-35 3.22931808057899e-34 3.32523841960609e-34 -5.37906214936279e-35 7.58146836506343e-34 -5.48250565223515e-34 -4.24753128726125e-34 1.62405124015256e-33 -1.40212966166082e-34 -3.10073369227842e-36 8.88673729221649e-35 -1.14824639177023e-33 5.70726017211237e-34 8.84677048428854e-35 -8.2754802297889e-36 -2.08570417101716e-33 5.17217514361807e-36 1.42558077395973e-34 1.44009996590231e-33 -5.69358774595146e-34 1.06847734512343e-33 5.99502118919367e-35 1.38877604583548e-33 -8.57640678359941e-34 2.13469774109327e-34 9.56705464775489e-36 -3.65046097228015e-35 6.37964294078272e-34 1.76042033979146e-34 8.15322881730339e-35 -6.40033164135719e-33 4.58912994561021e-35 2.68464101818197e-33 2.99777691753569e-34 1.86574463362513e-34 -4.41021970541506e-34 -8.90742599279097e-34 -9.47683545632928e-34 5.42020445164157e-35 -2.63066231759221e-33 2.86410374072201e-33 1.09407961208434e-33 9.14652154374822e-34 -1.26097630001408e-33 -1.0522790329691e-33 7.33508474913107e-34 -8.64487932953481e-34 -5.18491750238098e-33 1.58649419564379e-33 -9.89178496216955e-36 -4.52486716226186e-34 -2.12797391340657e-33 2.9761636171859e-33 -1.42660345404494e-33 2.82118644197349e-36 -3.30303865179559e-33 2.24792135696448e-33 -1.14504904713599e-34 -9.56382203829013e-35 -1.79318724482063e-34 1.90587601076221e-33 -9.65974237731723e-34 9.61507359198598e-34 1.88615709302716e-33 -2.4597539613167e-32 -1.81941504083689e-32
