-0.00148325860327213 -0.141027643948754 -0.113934916443735 -4.63369552319686e-33 1.54996524507812e-31 0.011247534882324 -0.00342397698977015 -1.45027795053624e-31 2.19134133122028e-31 0.000777442508135647 -0.000128622701669201 -1.33583773308959e-29 9.20112968821927e-34 -0.0076528193773992 -0.0373944320236538 3.4653482268698e-06 4.13554366816357e-06 0.00275378179448532 -0.00893316103201187 -1.11462313975265e-31 -8.18730490973006e-32 -5.52113594684104e-33 0.00649687277584219 0.000326002717989397 1.00433233373446e-31 1.59622792849387e-31 3.75003342139398e-29 -3.9394541278463e-30 0.00190087992853891 -0.00700030112072983 8.86471589655263e-32 9.9287206821763e-33 0.00258934725420459 0.000202913194000277 5.84713665505827e-31 1.80753135696227e-32 -2.37153790655192e-32 1.76485008348235e-31 -1.69287110657678e-32 8.54532871192387e-06 -4.52464691729377e-05 0.000671167760796113 0.000508709483927341 -0.000354387182628669 0.000118117453744533 -4.20771154112833e-32 5.14464506592181e-33 7.29088928729981e-10 5.38037879230126e-08 -3.69576090101197e-32 -6.06912380779847e-33 -1.93020304847522e-05 -5.84064393111291e-05 5.83939718945193e-36 3.01812198801154e-31 1.90600174054945e-05 1.18543265154003e-06 0.000607471580455957 -1.20610534043733e-31 1.6126917929955e-32 4.0213285553645e-33 2.97198493123446e-33 -3.16483624789966e-33 1.4938748176093e-34 -8.03761342911894e-32 -5.75394476807773e-32 -4.98640966400268e-06 -4.82474699371836e-07 -1.26679577427246e-33 -8.67405509932222e-33 -1.82047521419347e-33 -3.17383474722018e-34 -5.77613688637687e-34 -2.07566325662251e-33 1.30063737256585e-07 -3.97689993444881e-07 1.0638841246186e-06 8.06638866149529e-06 -1.48775256083039e-05 1.90591960246671e-05 -1.47960328452866e-05 3.29263224829547e-05 6.04661636718227e-06 -1.50501077936879e-06 6.20175097374837e-06 4.97631309189724e-06 3.88928539024397e-06 9.16003958727808e-06 -1.7457690848045e-05 -1.50459988948773e-05 -3.39802635063843e-05 3.13447772760723e-05 -3.16635717700476e-06 -7.47555443099698e-06 -1.12238619338959e-32 5.66254160198716e-33 4.06280449017282e-35 1.60184056826736e-32 1.13566604249592e-05 -3.49891633270521e-05 -1.95018495567569e-33 6.90019440702919e-33 4.23892980188091e-05 5.33702917373426e-06 -5.78873900145477e-06 8.15114275441832e-07 -5.30192929121383e-33 2.29701000105482e-33 -1.17963688783935e-33 -2.08935080199173e-33 1.73319648493644e-34 8.60594679315196e-34 1.52156416764733e-35 -1.31659263513382e-33 6.60602909540424e-35 -2.87660606850366e-34 -2.40922516809087e-33 -1.65591197495502e-07 6.14653602378697e-07 -1.45358743720248e-33 3.35279200718936e-33 1.91095708509364e-34 -2.20070986911106e-33 -4.88535474872482e-33 -5.39903967585501e-33 8.87763973505519e-07 4.37741814472698e-06 6.07078854217513e-34 -1.88882840393941e-33 4.05349085075259e-34 7.79216529983197e-34 -2.43701823332787e-07 -5.96795916362067e-06 1.88176520992269e-06 1.17260194812116e-07 4.36077620896757e-33 3.14133232841994e-33 1.80594095480235e-07 -6.4959678154951e-07 -2.22995660938857e-07 -1.01802503548838e-08 -1.42047955937781e-34 -4.04643796055147e-35 -1.46372729324783e-33 -2.55311495526847e-34 -2.60890068962697e-06 -2.05691512629529e-07 7.45904706231829e-08 -8.61598116655783e-08 -3.34336102942819e-08 -9.41274100925611e-07 2.93552082721833e-08 -4.3235698518948e-08 6.79253163989072e-07 1.02289291835737e-06 -7.98060193673823e-34 6.82355360285859e-35 -1.13142150824012e-34 -1.7807799019477e-33 1.11738627777298e-07 1.57926219698089e-08 1.17871566449085e-06 -2.9347670582149e-07 7.46184486390962e-32 1.0467824327579e-32 2.78869272897086e-08 -8.5257989293773e-08 -2.62314604868408e-07 7.87604713612197e-07 4.94004927134664e-33 1.15659240166107e-33 -2.21566707171873e-34 -2.467638857643e-34 -1.44607976730394e-09 -2.39496490140159e-08 -1.51411536021668e-33 -4.70081836435913e-34 -1.09691425199449e-33 -3.90829251584478e-35 1.85371624875855e-33 -2.71233982520828e-34 -9.31225962326844e-08 1.55881988156658e-09 5.3847034985455e-34 2.6352393876047e-33 -8.18446632905877e-34 1.77545361990738e-34 -1.418070250683e-33 1.68121907165984e-35 -4.43053224779727e-33 -3.76703887124764e-33 -3.52535457789007e-33 3.94858934866501e-35 -2.80584191044426e-35 1.61493788543022e-08 -3.6669014173607e-09 -5.4466963141234e-08 -1.62351063029329e-08 -5.38101652573294e-34 -6.09152927539618e-34 5.92657876644284e-09 3.64824575038527e-08 3.35819273093478e-35 2.56794611878645e-34 5.56902203645567e-34 -1.84253899523203e-35 2.97462289374876e-09 -3.17313534469903e-10 1.31238292891483e-10 2.15658929056173e-09 9.46454866621051e-09 -1.21969203207348e-08 1.05428266653515e-08 -6.97696820592934e-10 -5.36932462138786e-10 -5.76914661036036e-09 -3.26451402263045e-09 -7.58185305637797e-09 2.08247271898543e-09 -4.65098601838867e-09 5.81389902619637e-09 5.47835317524272e-10 -5.36381053725494e-09 7.91366923251106e-10 6.47297661215661e-09 -2.15447007631245e-09 -3.10573461751517e-34 -2.66714966224174e-33 -1.28788383516933e-34 -1.13719744916386e-33 -2.13464127121926e-34 -1.17424242619408e-35 1.9874378704516e-09 4.4262569050363e-09 -4.78050794290469e-33 2.75281969052967e-33 2.18301923143286e-34 -9.968192094973e-34 -6.80883943815495e-33 1.77920934291115e-33 2.85844504531198e-35 6.57253488887462e-35 -2.12976895843172e-10 -1.22705382355614e-10 -5.41972861029531e-10 3.82740960627737e-35 2.40373123025561e-35 1.22843113157276e-11 1.85057928471449e-10 4.9253602765523e-34 -8.54231744742556e-34 5.16166349673509e-12 -3.04572927811722e-10 -1.63764166762624e-34 -5.29965534367775e-35 1.15756762023684e-11 1.64862335102298e-10 -7.1472832674478e-11 6.28827436662345e-12 2.16452718552245e-10 -4.297224121355e-11 -4.53382295135179e-34 1.7561885601285e-35 -1.46137457694227e-33 2.4375050858651e-34 -1.20229934337377e-34 1.84749339447729e-12 -1.65423258792923e-11 4.38864221312311e-33 -1.24809288192907e-33 -5.51469405777061e-13 1.67169199477868e-12 1.33742787726999e-34 3.9655931976446e-35 -1.37062641305879e-34 -2.64177890195301e-33 -2.10422240099699e-12 -8.04142402668022e-12 8.24938090894476e-33 -5.9809152569838e-35 4.95823517176841e-33 1.1505680580099e-12 -3.68844926950654e-13 -1.47580180457446e-12 -1.93662332502615e-12 5.30668025956252e-15 1.11304292803346e-14 3.40329124450069e-34 -7.79097776209953e-34 -8.008601240963e-13 2.41449789893397e-13 4.54057027397774e-33 -1.66295251559743e-33 -4.02189321904372e-14 3.80038382595037e-15 2.41218193427515e-33 1.09483192846886e-33 2.46309796085137e-15 1.83368953182879e-17 2.49215624879418e-18
