-0.166666666666666 -8.30607284341146e-16 0.166666666666667 -9.51004317174001e-33 -4.62093882274346e-32 -2.29418881461284e-32 7.30863612623757e-33 -1.58310877191342e-33 -3.01075253845885e-33 -4.39860399190888e-33 -8.03735328617673e-32 -9.81272121213324e-33 2.66156018660358e-33 -4.96077423956618e-33 1.4294011305999e-35 5.73641243201276e-34 -1.62556762786512e-33 -7.89932203752577e-35 -8.25667232017575e-34 1.04101779708822e-33 1.45192360236166e-33 5.28972457870029e-34 2.51988226060278e-33 4.84450609332635e-34 -3.96019344814625e-33 -3.7286680808083e-34 -1.75427529613574e-32 1.83964722153828e-32 6.97702916987061e-34 9.41373491957714e-33 -1.94191666755842e-34 1.49757980294759e-34 4.6361497196431e-35 1.72656610248778e-34 -6.70313898612901e-34 -5.81705134447917e-34 -7.89932203752577e-34 4.23177966296024e-34 2.46759774124615e-34 2.43524813671152e-32 7.16581356261266e-34 -8.57264520167678e-34 -1.90336045285145e-34 6.05332570899445e-34 -2.09326689960611e-33 1.47642090463279e-34 2.98481525560795e-34 2.0624048385177e-35 -2.2549434663427e-34 -1.88643333419961e-34 -1.80104542455588e-33 -2.4795407638505e-33 -1.29853922199461e-33 -1.27235508533004e-34 8.6657443542619e-35 -5.1044666690107e-34 9.29110734889936e-35 1.35699067858925e-34 -4.7922553694323e-34 1.88079096131566e-34 -3.93790607525466e-34 -1.10606377699097e-33 -1.2532750366578e-33 -2.7986169504377e-34 -4.65495762925626e-35 4.81482486096809e-35 -8.07494089353862e-34 -9.05177669907194e-34 -8.85711483457577e-34 -3.30078813710898e-34 5.03863898536465e-34 -2.18683326654094e-32 -7.71124294139421e-34 -1.98611525514934e-34 6.56748693804412e-34 3.14468248731978e-34 -6.22471278534434e-34 2.63310734584192e-35 -4.89005649942072e-35 -1.31655367292096e-34 -4.32581921102602e-34 -1.07581242987256e-33 8.65163842205204e-36 -5.30383051091016e-34 -1.90900282573539e-35 -3.93085310914973e-34 9.79443933624208e-36 -1.820164840172e-34 -5.2539895504353e-34 -4.20544858950182e-34 3.22884788283866e-34 -2.04630056591144e-33 -9.97571525881826e-34 3.01620538189704e-34 7.51846186785935e-35 -8.3436589021366e-35 4.15561644523458e-33 2.192119170763e-33 4.89123199377154e-35 -1.17173276889966e-34 6.57524520075955e-34 2.50309767064098e-34 -2.15115466200479e-34 2.64063050968719e-33 2.09896271282828e-33 0 2.91522599003927e-35 -8.18144068172312e-35 8.80210169895729e-35 -4.23177966296024e-35 1.06904158241182e-33 3.17030826416771e-34 1.18921824736814e-33 -2.21181017050722e-34 6.01476949428748e-34 1.27893785369465e-34 -1.09320974626473e-33 1.02098737335021e-33 -3.77686334919201e-34 -4.77720904174178e-34 1.22439491581649e-34 9.93057627574668e-35 -5.52482344886475e-36 6.846079099189e-34 -4.06250847644183e-35 -3.17853672462347e-34 2.65868610291582e-33 -1.14640086563944e-34 2.36465382347288e-35 1.76042033979146e-34 -2.01432711956907e-34 -4.51389830715758e-34 6.58276836460481e-34 4.10952825047472e-34 -3.66754237456554e-35 1.57234124365989e-34 9.4039548065783e-36 7.24856836491055e-34 -1.8309500008408e-34 -5.76422538599606e-34 -4.46483598606729e-34 -6.67680791267059e-36 9.54007705240352e-34 1.27261369408722e-33 -1.89548464070094e-34 5.4166779685891e-35 1.18489830562887e-34 3.42068856089286e-34 2.85203141373907e-33 1.20723269829449e-34 0 -2.21181017050722e-34 -7.72628926908473e-33 5.44159844882653e-34 1.69271186518409e-34 3.89323728992342e-35 -7.10938983377319e-35 -5.45429378781541e-34 1.08333559371782e-34 2.78733220466981e-34 6.35707344924693e-34 -5.66118079356014e-34 -1.04995155415447e-34 3.50983805245922e-33 -1.22795666369949e-33 -8.88673729221649e-35 2.19300226089406e-34 -3.06192768502189e-34 -6.30394110458976e-34 -7.33508474913107e-35 8.79103233044435e-35 9.32872316812567e-35 1.67014237364831e-34 -2.784746117098e-34 -3.37061250154783e-34 1.40985853701748e-36 -4.02489265721551e-35 2.40741243048404e-35 -1.52814265606897e-34 1.52344067866568e-34 -2.74971638544349e-34 1.89583728900619e-34 1.1972409963125e-35 1.75054618724455e-34 -5.64237288394698e-35 -2.62182260007403e-34 2.36979661125773e-35 -1.27141468984939e-33 3.37528509159235e-35 -4.19921846944246e-34 8.95726695326583e-35 5.75670807666368e-37 1.98799604611065e-34 7.89932203752577e-36 1.03819661064624e-34 2.16667118743564e-34 -1.71069692875168e-33 6.27713983339102e-36 4.32581921102602e-34 -9.02779661431517e-34 -1.4294011305999e-35 -6.846079099189e-34 -1.85526730553946e-33 -1.08615678015979e-35 2.48264406893667e-35 -2.20052542473932e-34 -6.86864859072479e-33 -2.5578757073893e-35 0 1.03493461382271e-34 2.83693825864476e-35 -4.90281887832179e-34 8.52417075338474e-36 5.56515759877734e-35 -6.37705685321091e-34 5.02523834976528e-34 -1.8619830517025e-35 1.68518870133883e-34 -7.4990897209578e-33 -2.97917288272401e-34 -4.67564632983073e-34 -2.78357062274718e-34 1.34708897539349e-33 -7.47614407122975e-35 -9.94897276233705e-34 1.30479872941274e-35 3.81424406954816e-34 -5.50131356184831e-36 -6.72676642258054e-34 -1.28448618703053e-33 -2.32465762818616e-33 4.66060000214021e-34 1.45302122021174e-34 1.41200381420773e-33 -2.92933192224914e-35 7.31345565307594e-34 4.1076474595134e-34 2.35333969034622e-35 8.36575819593206e-34 -1.67465627195546e-33 -8.95538616230452e-34 8.95656165665534e-34 6.67680791267059e-36 -7.11146531598637e-35 3.38542373036819e-35 1.0391370061269e-34 -1.83447648389326e-34 -3.31442387157852e-34 -4.06250847644183e-35 -1.16762868630473e-33 -3.00926553810506e-35 -1.38484989470374e-34 6.60237524303454e-34 6.02934246086729e-34 5.19098305323122e-35 5.21919491765096e-35 1.08164288185264e-33 -1.34006355993741e-34 -4.32276292571388e-34 9.35320283798155e-34 -4.12157706757065e-34 7.70371977754894e-34 -1.09687728863929e-33 -2.4579586875694e-34 -9.25349152967305e-34 -1.23906508531476e-33 -3.35006486029545e-33 -3.75559057486197e-34 1.74913559402356e-34 -4.17535593412077e-34 -1.1314838423275e-33 4.18287909796603e-34 -4.24894188048224e-34 1.48206327751674e-34 -1.49579305153434e-33 -1.22016313615353e-35 9.2055313601595e-34 -3.69965688023e-33 -2.86985190809753e-34 -7.04168135916583e-34 -2.62353294435448e-33 -1.44915531316547e-33 2.37399312609017e-33 -1.25101986286262e-35 -7.33625625640295e-34 9.42276271619146e-34 -7.76390508831104e-34 -2.90370614540121e-33 -9.59203390270987e-36 -1.52191924266495e-33 4.44167593424306e-33 6.87429096360874e-35 1.41764618709168e-34 3.14086213067961e-34 -2.79626596173606e-33 1.72818828469191e-33 3.98257486058591e-34 -1.89254002735213e-33 2.52153882601668e-32 -3.82086467536027e-33
