-0.166666666666667 8.30607284341146e-16 0.166666666666667 -7.33513764637686e-33 -2.55226272186412e-32 -2.57828228931957e-32 1.04367323882673e-32 -2.80725683391625e-33 -1.8157332264694e-33 -1.73864211470643e-33 1.51920231623436e-31 -1.09571002274893e-32 -1.00667866836482e-34 -3.55817438016503e-33 7.08446935353576e-34 -7.62895833683665e-34 4.20568368837198e-34 3.29179560532519e-33 6.69322626267372e-33 1.08941877698333e-33 -2.65191525545508e-35 3.41628045707727e-33 1.86850322499293e-32 3.37731281934751e-33 -1.71046653185891e-32 6.76717404089006e-35 -1.07644660907483e-32 4.30423600146635e-32 1.69695539979056e-33 2.30782454908238e-33 -1.14330343802502e-33 -1.57398693575104e-34 -3.06804025564617e-35 -1.81449307992928e-34 1.95508220428763e-33 5.49684668331518e-34 -1.14258050899926e-33 -7.08823093545839e-34 2.9189875719619e-34 -3.98069406962459e-33 -9.25211032381083e-34 1.7913593511051e-33 -1.76209541924138e-33 -5.91491124918513e-34 1.76686306699225e-33 5.6646117676966e-34 3.70263088093758e-34 -7.43500176895097e-36 1.13965463009167e-34 2.90683589911028e-34 -7.37928333672199e-34 -1.60027098943543e-33 -1.08968326321226e-34 -1.48682402963757e-34 -3.8080139494888e-35 -6.58864583635892e-35 -8.93375706624939e-37 -9.78775371212178e-35 4.05498531259656e-34 5.59535310991409e-34 -5.73053496025865e-35 1.10358936138249e-33 -6.78008434409445e-34 -1.34191496353995e-33 6.21542637997285e-35 5.13079774246912e-34 -9.50880890267165e-34 -1.72762404740352e-33 1.35959145984044e-33 1.33301059383247e-34 -2.27070243748341e-33 3.36924892810087e-33 -7.09434350608267e-34 -9.43404746195935e-34 -8.51998305475994e-34 -1.31373248647899e-34 8.92458821031297e-34 -5.19568503063451e-35 -3.59419152707423e-34 -2.40976341918569e-34 -1.72167604598836e-33 -9.44392161450626e-34 -4.37871645681302e-36 6.46051695211929e-34 3.87457631710411e-35 -6.51694068095876e-34 9.59387061263303e-36 -1.97121586425266e-34 -6.28348750288546e-34 -5.51965127372113e-34 -2.69070656903222e-35 -3.83681356108395e-33 1.02691186487835e-34 3.65215972738344e-33 1.35240625062104e-35 -2.33805826378553e-35 1.12326713681525e-33 5.11569264006105e-34 -1.60895789268801e-35 1.28363983109794e-35 4.94930141470216e-34 2.03242973257174e-34 -3.12993003321696e-34 5.50131356184831e-34 7.87111017310604e-34 0 -1.36357344695385e-35 -3.02713305223755e-34 -6.1125706242759e-35 9.16444783259826e-35 6.10880904235326e-34 -1.52379332697093e-33 -7.94745853119194e-34 4.6136977775424e-34 2.15162485974512e-34 7.05414159928455e-35 -7.14230367559622e-34 8.61872458022901e-34 -3.23731144216458e-35 -3.85162478990431e-34 2.34675692198161e-34 -3.73948262883586e-34 -8.8397175181836e-35 2.54847175258272e-34 4.65495762925626e-35 2.16996257161794e-34 1.02615954849382e-33 4.96888808932274e-34 5.20450123826568e-36 4.16877316575616e-34 -2.0862673738394e-34 1.41059322098675e-35 -3.25611935177774e-34 -3.24965413284821e-34 7.02945621791728e-36 1.16138841861242e-34 1.03443502872361e-34 9.48482881791487e-34 -1.17925593274492e-34 5.19148998517001e-34 4.13622561115842e-34 -4.46511529159846e-34 1.32387700272658e-33 -1.28218221810292e-33 1.27502933497816e-34 3.99197881539249e-35 2.59196504356314e-34 7.40561441018041e-35 3.58102599034502e-34 2.97164971887874e-35 0 7.70183898658763e-35 -9.86422615016695e-35 -2.67906917495908e-34 -8.81620763116716e-35 3.91757002298544e-34 2.0538237297567e-34 1.70446680869232e-34 2.88607373013888e-34 -1.92969152630987e-34 2.93403389965243e-34 1.15198446380584e-35 6.62185355176965e-34 2.74896406905897e-33 -9.98065233509171e-34 5.19627277780992e-34 -3.62052260053265e-36 -2.33124039655076e-34 6.71395353415658e-34 1.8987172501657e-34 4.83911983120452e-34 9.32872316812567e-35 2.29644576376642e-34 -6.78025141554295e-35 1.25969501117169e-33 -9.51283497082321e-35 1.55713034676025e-33 2.60489548142219e-35 3.11506002967906e-34 -7.05296610493373e-36 9.69594760332256e-34 1.31819936501211e-34 8.15264107012798e-35 1.19105789602717e-33 4.67626346436491e-35 -3.26129152692135e-34 -3.0327754251215e-36 -2.11456740033544e-34 4.18881534443768e-34 3.59466172481456e-34 -8.06154025793925e-35 -1.25733814499829e-35 3.79849244524714e-34 3.48886723324055e-35 1.77358587652067e-34 2.64063050968719e-34 -1.34411901544774e-33 -1.36004696390139e-34 9.73309322480854e-34 4.42362034101443e-34 2.9660073459948e-34 3.62052260053265e-35 1.3732125006306e-34 2.30808315783956e-35 1.00434237334256e-34 4.85490921833113e-34 -4.51145327890787e-33 -2.5578757073893e-35 2.74501440804021e-34 3.43832097615519e-35 1.04294083237777e-34 3.42265751393048e-34 1.15489978163138e-34 1.39260815741916e-34 9.28499477827508e-34 -9.03661282194634e-35 6.07730579375123e-36 2.83059039678007e-34 -2.94607096180485e-33 -3.78603220512842e-34 5.12727125941665e-34 1.56575847529529e-34 5.40235163118845e-34 -2.01855889923203e-34 -1.31949240879802e-34 -3.79096928140188e-36 1.57704322106318e-34 9.95737754694543e-34 4.76864997349985e-34 -3.69105226158198e-34 -7.63086851515673e-34 2.75159717640481e-34 8.33065499588063e-35 -5.0186261940419e-35 -3.94966101876289e-35 -4.03664760072374e-34 -1.22862669547945e-34 -9.0771673770497e-35 8.88861808317781e-34 1.39554689329622e-34 4.00690759364793e-34 -2.01792413228259e-33 1.64416394849513e-34 -1.29186002635904e-34 -5.31323446571674e-35 5.09177133002182e-34 -2.49692632529916e-34 -7.81101302442025e-35 -4.4671724067124e-35 1.67554885463832e-33 -5.57772069465175e-35 -1.35769597519974e-35 2.29311764538566e-33 9.81973702873584e-34 -2.8766697753323e-34 2.75065678092415e-35 3.00456356070177e-35 1.30656197093897e-33 1.07135142881119e-33 6.07789354092664e-34 -2.0938493124022e-34 4.45371299639548e-34 -1.16797118697702e-33 -5.63531991784205e-35 -4.81952683837138e-33 4.83005926775475e-33 -1.9790622890444e-33 5.81294813451083e-34 1.34483018952999e-33 4.25364385788553e-34 6.31945763002062e-35 -1.29081034663795e-33 3.28249450627431e-35 2.40024779241578e-33 -1.27482362346677e-35 1.15915497934586e-34 7.33196968910139e-34 2.66173063328445e-33 -4.39676029509814e-34 -2.01470327776134e-33 -3.29257143159674e-33 -2.66528062622393e-33 -3.85127214159906e-34 4.04763112606423e-35 5.68884592345881e-34 1.33096523366204e-33 6.86418171219167e-34 1.1825238070402e-33 1.32243114467507e-35 2.01373613580967e-33 -8.13855864780512e-33 9.63200071063782e-35 -2.37287952886376e-34 -3.11858651273153e-35 -2.77602982648665e-33 -3.06394953530531e-33 7.25397563892434e-35 6.29516897799675e-33 2.50004843829495e-32 -4.13037888721008e-33
