-0.247762099644257 -0.0799894808305326 0.157384023193139 6.29895188094473e-33 1.1913502998398e-31 3.97463658698451e-05 0.00115280183062374 0.00674996144588366 0.0016833292501318 0.00042488852950394 0.000131346545129068 4.2093840302337e-32 1.62257717023663e-32 -1.97995920565334e-33 -9.76965639612384e-34 -1.46628566111526e-32 -3.07829328896963e-33 -0.0015652712510386 -4.20670806074985e-06 -4.6719843738679e-09 -5.05184221991116e-09 -0.000245028441222069 -0.000526380005795977 -3.35319545842648e-34 -0.0013985858265688 -2.33983174942595e-05 -9.36810222887822e-33 3.35594351446063e-34 5.20212673967702e-32 -5.78654913910417e-33 2.45617556810347e-33 7.55864949190532e-33 8.63337110623083e-33 1.31683835621544e-31 0.000439835229558741 3.69895900501941e-05 -2.01714192658563e-07 -1.83160761046979e-05 -6.06701331901285e-33 -3.61271094524545e-08 -1.52285871300198e-07 0.000213476576248459 0.000114710805690178 -5.33357984792367e-06 -1.10811200791989e-06 -2.88736677392478e-33 1.92342246365409e-34 -1.34281421671833e-32 -4.2717734570109e-33 -2.15864480639278e-34 -2.20078845188526e-34 -8.377736640507e-35 2.5931395264614e-35 3.44032414486115e-33 1.41981835670587e-33 2.85722127087583e-07 8.2073931292181e-07 -7.87229378196646e-34 1.58927158585116e-33 3.07550222234739e-09 1.86258207188866e-09 -7.06561167507722e-05 4.20739082721618e-08 6.3172920087591e-08 2.55544964996328e-09 1.7461455867238e-07 1.23621043275238e-07 1.14338450565252e-07 3.22987889691786e-07 4.5402352822671e-06 4.26460134952883e-07 2.27312086877663e-06 3.13797362282914e-07 2.74962871635829e-06 7.44680947171284e-07 1.07313373250098e-06 9.40465802812502e-09 8.64799424204426e-10 1.40893602563436e-32 -1.7321755615299e-32 3.31786771527538e-07 2.01617662975325e-09 5.0606924471161e-34 -1.62569928323242e-32 3.92112589339667e-34 4.46323618685462e-34 3.22725635557624e-34 -7.57598618960336e-35 -1.34649586502511e-32 -7.78065303875058e-33 7.67880409987672e-35 -8.46134902561114e-35 4.46088772848652e-35 8.1812587323852e-35 -9.96621819388609e-07 -3.53635824466497e-08 -5.74505611632223e-08 -4.76557448421922e-08 -1.263014194571e-34 -2.81383834716424e-34 -1.58181210553919e-33 -1.01175676692889e-33 -1.61739819654628e-06 -2.19470286745015e-08 -8.85369906369207e-11 -3.71279878931298e-08 -1.74223246891592e-07 -1.3428310198191e-08 -5.25660826927639e-35 -1.55074166949438e-34 2.3088589841111e-32 -6.24740913956912e-34 5.07661175858193e-34 1.11656116400625e-09 1.98282298858768e-10 -3.46830049020497e-33 1.54391191278525e-33 -2.83007769074615e-07 -2.36700608590396e-07 -9.67455360613759e-34 -1.03966230516493e-34 -4.29971956301792e-33 -5.05576808333332e-31 -1.76521263400066e-07 -2.95132273879383e-07 -7.46416085154963e-11 -2.92732475465393e-11 1.46532423796103e-33 -2.07507720428325e-34 -1.57102356015926e-33 3.14086213067961e-33 -6.52058076695823e-36 5.28010714103952e-34 -7.33483220920659e-35 -8.86740399431351e-34 -2.59019559381954e-34 -1.78573332958839e-34 -7.58057254481236e-34 1.74966690097175e-35 3.83798349036879e-09 8.47827275675981e-08 -5.89542409002731e-12 -5.26651232922905e-10 3.22241469660455e-08 1.28929636599488e-08 3.56772364998444e-09 1.15174572469541e-11 1.79235078730116e-10 2.31515483755576e-24 2.77342189302353e-11 9.16616459530535e-13 2.90857984326321e-10 1.80801688476255e-09 1.60243920230893e-10 -2.12618112616624e-11 -5.32499483339486e-09 -8.05993992463129e-09 5.35890353288173e-08 3.23993854834621e-10 -2.66769794240928e-14 -2.15633457105953e-10 2.30208813665037e-33 -3.50390373525045e-35 -3.70929593390674e-33 5.7313786988796e-35 -5.8170983642532e-33 1.5241186545748e-33 -9.86681746215808e-33 2.94573876299562e-33 5.680415186129e-35 6.59973237700638e-35 -7.71621839664594e-37 -6.20449412269648e-35 6.06467346016971e-11 8.40015701019318e-11 2.0942800670493e-11 1.81564914558658e-09 6.15058269836471e-33 3.80754780137715e-34 9.78573391855221e-35 -6.01570822040935e-34 3.08778576150996e-11 4.11872657756759e-13 -1.9121475284036e-34 -7.56529410221362e-34 -4.74614885379274e-10 -2.15931648512561e-10 -1.87408359929342e-34 2.4766337186734e-35 -2.25128333814751e-33 -2.98490580227339e-34 -2.73781989702573e-35 1.32963329695307e-12 8.93349220918538e-11 2.94221265278317e-12 2.0654702158613e-10 1.38660476110364e-11 2.62456981011562e-11 -2.99515960589519e-35 1.98423446418802e-34 -2.45283816989237e-34 -5.08508276716564e-33 4.36776552722347e-14 1.25133752795506e-14 1.09603370802512e-10 3.7991754791306e-10 1.13679871408155e-33 3.31019209191556e-34 9.33624633197094e-34 1.32486323688846e-34 -9.61946531742631e-35 -4.32289386266209e-36 1.05032771234673e-33 -1.13077686705681e-33 2.05774630046608e-34 -6.04039904897485e-34 -7.39130213539099e-35 -6.59926904017936e-35 -1.43517491420357e-11 -5.84626951145825e-12 -6.46480170081014e-35 -9.01572226247784e-36 -3.72334830217554e-13 -4.73325659687168e-12 -2.75777731669907e-14 -1.05497945648165e-11 -9.79944504795554e-14 -2.49213939270456e-13 -6.7843558963127e-12 -1.02333728761805e-11 -1.29560149979358e-11 -1.66970437821609e-11 -5.00447284322807e-13 -2.49551658815802e-11 -1.3002844092381e-14 -1.32013650708107e-12 -1.20929542813113e-12 -2.80585760227578e-12 4.48580568372123e-14 -3.15877385872747e-12 -1.84286215680163e-12 -2.01827678058783e-33 -1.5692654281807e-33 -3.20456044130651e-15 -6.69711383281885e-13 -2.22135518463589e-33 -2.89002517751449e-35 4.96713391139004e-34 -8.08152366190323e-35 -7.89811141249583e-34 -1.90768627206247e-33 5.30565120292524e-34 1.28941834514966e-34 -2.08560268671657e-34 -3.89387275724379e-35 5.46152542961219e-13 4.46913232039086e-14 -2.99546622321376e-15 -4.68770308848225e-14 5.93914627410956e-14 1.76504689530979e-13 1.98047288226539e-33 6.291584164789e-14 1.01649843217338e-13 -1.34368290131836e-14 -3.16374562087708e-15 5.18407114644839e-33 8.04406652865833e-35 -1.0586442932351e-33 7.47261758817728e-33 -5.30760226946083e-34 -5.15881868124975e-34 1.2343908347173e-34 2.77696904223831e-34 3.53566944095949e-19 2.16438496938476e-16 -7.64185098630823e-34 3.69849536524752e-15 6.61037413080347e-15 9.16853876858714e-16 1.05125623811237e-15 6.12791255341776e-18 2.87309546666988e-16 1.78646929460568e-33 -2.89621460740494e-34 -8.53695998520014e-34 1.40556210516523e-33 6.77745374615953e-35 1.03723855818184e-34 -3.78466370025597e-18 -9.65541117381802e-17 -3.33711597914372e-20 -6.18634575782553e-20 -5.95669704848877e-18 -1.88286505363428e-17 1.83107930521939e-33 -1.28393109511778e-33 -4.83148176713313e-21 3.41714489393072e-24 9.49811694513999e-24
