-0.245798117085166 0.0819223268477715 0.157384023193139 -5.16574839309876e-33 -7.99197787452267e-33 -0.000205250534576253 -0.00039102356367048 0.00674996144588365 0.00168332925013179 -0.000417030995288147 0.000138913457971625 -3.83475111277272e-32 3.76604880116444e-33 2.73874834271801e-33 7.96960862929805e-34 -3.63983260385734e-32 -1.16639338169443e-33 -0.000852909940825498 6.81709612758069e-05 4.67198437397446e-09 5.05184221989498e-09 0.00024502844122207 0.000526380005795977 4.24768517456555e-33 -0.00054262952761382 -0.000168362544417712 2.00988375092296e-32 -9.52175834084369e-34 -6.26688952265184e-33 8.55115742001193e-33 -3.91789235477255e-34 1.79424176186122e-33 -2.30272465037194e-33 -2.04372222046819e-32 -0.000109454980267704 -0.000128957429536769 -1.76547698630328e-06 -7.49341816237001e-06 2.74858294618308e-32 3.61271094524841e-08 1.52285871300226e-07 2.87831217824027e-05 -0.000192876812751723 -4.77217656446687e-06 1.551330636544e-06 -3.58431737452732e-33 -1.30760841752862e-34 -1.32581656840544e-32 3.39080173658108e-33 -5.58836515913834e-34 2.01663687393565e-34 -1.77484788324104e-34 1.0601617021271e-34 1.07186516413895e-33 1.76521404959162e-33 2.85722127087555e-07 8.2073931292186e-07 -5.58451802594166e-34 -1.26989675338375e-34 -3.61049843684781e-09 1.14145628973724e-09 7.06561167507716e-05 -6.56850082234828e-08 1.30615940435871e-08 5.13520640854238e-08 -2.82086532151975e-07 -1.48893762401062e-08 1.51697910245548e-07 -3.03455694663742e-07 -1.70667117624683e-06 -5.04188540053991e-07 4.49313005741738e-08 -4.54135996065048e-07 2.81996144813711e-06 -1.34361930271666e-06 5.69874247624187e-08 1.85876214725106e-07 2.03727351797475e-09 4.89527801396507e-33 1.13792555137001e-32 3.31786771527511e-07 2.01617662975736e-09 -4.73516722820306e-35 -1.26774714747482e-33 6.98106993170156e-34 -7.3720807644197e-34 -6.38240442596979e-34 5.89495706552649e-35 -1.07188157676341e-32 9.72208768669542e-33 7.1728083746888e-34 -2.14793623301974e-34 3.93824311043153e-34 4.5413957146506e-35 -6.60893468440801e-07 1.44900767523156e-07 1.65890324207591e-08 -6.91421854234723e-08 -1.1676184238449e-35 3.59064297721794e-34 6.97744775496689e-34 8.40582243748639e-34 1.61739819654631e-06 2.19470286744916e-08 -1.61442779848788e-09 -1.69938346433886e-08 -1.29000080713234e-07 3.51743021683822e-08 -6.48570225305149e-34 -3.21788150934691e-34 5.06549668029224e-32 1.15299117957861e-35 -2.24074978101147e-34 -9.65767680952863e-10 3.0834594952471e-10 -3.7355902731667e-33 6.20849684077475e-33 2.830077690747e-07 2.36700608590471e-07 -4.12457457816524e-34 -6.6843825043937e-34 -1.24139366615534e-32 -1.10468042585156e-31 -2.85929145610313e-07 5.01023769705605e-08 3.16069413951279e-12 -5.5118122170528e-11 3.58854915419028e-34 1.91684527218474e-34 -1.52040823596487e-33 7.12819774338635e-33 7.03548309268453e-35 2.91492082819439e-33 1.21753671686557e-34 -2.74593801066587e-34 -1.34699311887944e-34 -3.33461989819875e-34 -6.69817798505748e-34 4.12335464285172e-35 -1.75409644600655e-08 -2.67693910689058e-08 4.53081090967566e-11 -3.1158143760505e-10 3.22241469660481e-08 1.28929636599592e-08 3.74513584099072e-09 9.7702050755043e-11 4.4606374871237e-10 9.0237674224256e-24 1.08133096925334e-10 7.98558828314412e-12 6.51933762940984e-10 1.23541066859762e-09 1.32619808417668e-10 3.62186061813349e-11 5.32499483339573e-09 8.05993992461583e-09 -3.04031030659022e-08 3.44658847407419e-09 -2.09043669934893e-12 -1.05739630341802e-10 1.35247678028209e-32 -2.21547491530711e-34 -7.80904407138262e-34 2.6706399032766e-36 -0 -1.67324535695151e-33 3.28893915405269e-33 -2.58915616747213e-33 1.74414874293499e-35 4.64517048304591e-35 -9.09612673512134e-37 -2.07247889494071e-34 3.14893797345081e-11 -1.03813532086415e-10 1.58403060752879e-10 -1.07669903388168e-09 4.12308151368164e-34 -1.00816624854832e-33 3.07895044832392e-34 1.03331644434562e-33 3.08778576148165e-11 4.11872657747218e-13 1.45121519060355e-36 -4.6070555087377e-34 -5.14549721132465e-10 1.69276454188382e-10 1.29712080621141e-34 -4.10717713765685e-36 7.88159679047314e-35 -2.1461588384841e-34 -1.40674478374189e-34 8.77377515581318e-12 -5.41060528500838e-11 1.98778736314773e-11 -1.24622490750403e-10 1.38660476110631e-11 2.62456981008807e-11 -1.35769597519974e-35 -1.84781834477509e-34 -4.66393819372696e-34 -1.44697477114469e-33 -1.59244107383163e-15 -2.65030741972073e-14 -2.31522320610925e-10 -1.32381387480646e-11 5.55791392155661e-35 9.26853785736357e-34 3.95331680619394e-33 -9.02349868871238e-35 -4.83397368302978e-35 -1.68634724622666e-34 1.75054618724455e-33 5.56845347155247e-34 -5.17239210225403e-34 6.43008327483163e-35 -1.99366280624878e-34 9.06190514346399e-35 1.43517491418517e-11 5.84626951138064e-12 1.25320499801941e-33 2.66861437726539e-35 -2.85939715169244e-12 -1.01947202662212e-12 -3.10599905453829e-13 1.8378308721379e-12 8.90614083559809e-13 2.27652159287832e-12 -6.76518291649109e-12 1.24417279500832e-11 2.26031196919121e-12 -1.30330041728808e-11 7.11543926991689e-13 -5.10111702184002e-12 1.27032638762522e-14 -3.55832774059574e-13 9.90605581796526e-13 -2.99818209703477e-12 4.48580568522761e-14 5.10083961732032e-13 -3.0109019693324e-12 -5.35461186686568e-34 7.90038002357375e-34 3.20456043796769e-15 6.69711383260462e-13 -2.29602258580012e-33 2.55669717158982e-34 -1.47357619453917e-34 2.93873587705572e-35 -2.33937925258453e-34 -4.73959322251546e-34 4.75477279001876e-34 3.50944708554203e-34 2.37609183470633e-34 3.82306544455991e-34 -1.37775828516231e-13 -1.57646104535414e-13 8.76452404452168e-15 -3.37007726000649e-14 5.93914627315835e-14 1.76504689527987e-13 1.08333559371782e-33 3.7799129947816e-14 -1.2008197234253e-13 -1.07190834322326e-15 -7.22837898044482e-15 -5.68253952591458e-33 4.19609873109014e-34 -2.02703260679346e-33 3.34663241679105e-33 2.43322719305641e-34 1.11486470426828e-34 4.40327015911275e-36 5.05836955552323e-34 -7.75267404139215e-18 -1.00643355794033e-16 -2.29570730449329e-34 3.69849537383239e-15 6.6103741265481e-15 9.16853878913826e-16 1.05125624058715e-15 3.32741189697255e-17 -1.79992848051844e-16 1.11512096096405e-33 9.80129657794583e-35 -3.79729668341216e-34 1.57831275496207e-33 8.36043185012582e-35 2.35772921900863e-34 -1.84473507703219e-17 -3.17220374140868e-17 3.33711673118909e-20 6.18634402656508e-20 6.19320677037662e-18 -1.8585880755786e-17 1.2038237646771e-33 -6.32641601066291e-34 4.83146493136838e-21 3.22474584115205e-24 -9.68307602324483e-24
