0.00196398255909066 0.161911807678304 0.157384023193139 -1.68304857194024e-32 -3.50113412701183e-32 0.000165504168706386 -0.000761778266953197 0.00674996144588368 0.00168332925013177 -7.85753421576257e-06 -0.000270260003100728 -1.39135734033046e-32 1.02363928860566e-32 2.66250862856059e-33 -1.61199759051017e-34 -4.84606594309228e-32 4.63199200063975e-34 0.00071236131021311 7.23776693365572e-05 -4.67198437390621e-09 -5.05184221993955e-09 -0.00024502844122206 -0.000526380005795964 3.96548190559197e-34 0.000855956298954991 -0.000144964226923454 -2.04029966725049e-32 1.96040785971594e-33 7.55981575912128e-32 -1.07792328950919e-32 -1.52140562993903e-33 -2.89601932214796e-33 -2.50906723065926e-33 -7.63298938241546e-32 -0.000330380249291037 9.19678394865739e-05 -1.56376279364475e-06 1.08226579423221e-05 -2.7123025114897e-32 -3.61271094523475e-08 -1.5228587130023e-07 -0.000242259698030862 7.816600706154e-05 5.61403283457438e-07 2.65944264446388e-06 -2.58867365938084e-34 -2.7637563301709e-34 -4.15025912973071e-33 5.08344908844631e-33 5.83863315518413e-34 4.47628209908943e-34 -2.46793139206161e-35 -2.05668919534474e-35 2.2443504401137e-33 2.60214524890108e-33 2.85722127087561e-07 8.20739312921921e-07 1.0000401135631e-33 1.04407541322812e-33 5.3499621447983e-10 -3.00403836162877e-09 -7.06561167507719e-05 2.36110999512201e-08 -7.62345141311663e-08 1.3185377522176e-08 -2.71409762445857e-07 1.14916814640737e-07 -2.0131935074624e-08 5.25239921845142e-08 7.92091407158874e-07 -5.65380492281578e-07 7.17566564948033e-07 -1.3229331331403e-08 -1.96624181618877e-06 -4.08121671584498e-07 2.33081239913834e-07 -6.34583596176338e-08 8.8404990066026e-08 1.01058239266381e-32 3.01076135466648e-32 3.31786771527524e-07 2.01617662976089e-09 -3.65336667247716e-34 2.41244824828297e-32 -2.08882407405243e-34 4.35984728150264e-35 6.46031460028416e-35 8.68663824024715e-35 6.26740674016621e-33 1.12302327369354e-32 1.45487052570703e-33 -5.17900846180677e-34 3.02790508403294e-34 1.92229892807933e-35 3.35728350947797e-07 1.80264349969818e-07 7.40395935839874e-08 -2.14864405812939e-08 1.02053826336544e-35 6.86977063550311e-34 2.09756068915564e-34 7.51094801805822e-34 -1.61739819654643e-06 -2.19470286744949e-08 -1.52589080785137e-09 2.01341532497382e-08 4.52231661783536e-08 4.86026123665785e-08 2.55686890672286e-34 -7.34771842161207e-35 2.53624661133417e-32 1.35291674901361e-33 2.41412125562276e-36 -1.50793483050281e-10 -5.0662824837979e-10 -1.28255984566312e-34 7.58816280539136e-33 -2.83007769074557e-07 -2.36700608590438e-07 3.27034283342269e-34 1.97212779072951e-34 -7.37754948255453e-33 3.62766411074955e-31 -1.09407882210235e-07 3.45234650849937e-07 7.78023026550671e-11 -2.58448746244396e-11 -2.66898343342902e-33 1.19735587229432e-33 -3.40360271660344e-34 1.12491870637816e-32 5.62297835443487e-34 2.74094009882284e-33 1.70707294130205e-34 -3.52926964257829e-35 7.5125955743856e-35 -4.17089217340193e-34 -2.90569794098148e-34 4.19877009268279e-35 1.37029809696989e-08 -5.80133364986775e-08 5.12035331865399e-11 2.15069795318831e-10 3.22241469660395e-08 1.28929636599647e-08 3.56772364998666e-09 1.15174572480343e-11 1.79235078730984e-10 2.31390683604416e-24 2.77342189303538e-11 9.16616459530535e-13 2.9085798432502e-10 1.80801688476164e-09 1.60243920230527e-10 -2.12618112616259e-11 -5.32499483340108e-09 -8.05993992462373e-09 -2.31859322629431e-08 -3.77058232890783e-09 -2.06375971993187e-12 1.0989382676422e-10 1.54911347528764e-32 -7.03873107479577e-34 1.88718565058413e-33 -1.51530355148072e-34 6.16908839266343e-33 1.14743089991836e-33 1.49514417865269e-32 3.54483338432156e-33 -1.40024901804006e-35 -1.45882391216245e-35 -7.08124017042045e-37 -2.02647639129499e-34 -9.21361143363942e-11 1.98119619846774e-11 -1.79345861423753e-10 -7.38950111704693e-10 8.00043966191967e-34 -1.30006990918609e-34 5.8413144130409e-34 1.91183205130844e-33 3.08778576145996e-11 4.11872657740618e-13 9.74362143227572e-34 -7.13544744480568e-35 -3.99348357538638e-11 3.85208102701306e-10 4.32553959105281e-34 1.00996695302086e-35 2.81777090920814e-33 -1.22309772022412e-34 -1.0498596557058e-34 -1.0103408452777e-11 -3.52288692415814e-11 -2.28200862843178e-11 -8.19245308351949e-11 1.38660476111453e-11 2.62456981007352e-11 -3.22555649865636e-35 -3.72043962035254e-34 -1.56761538185295e-34 2.75958759925453e-33 -4.20852141834028e-14 1.39896989243515e-14 1.21918949807069e-10 -3.66679409167164e-10 7.08763599917345e-34 3.21991412577241e-34 2.92487092118777e-33 5.86250536193637e-35 -3.19239607181111e-35 1.30394404891696e-35 1.05719259935553e-33 2.12273592977368e-33 -2.79746292523236e-34 3.79230207256728e-34 -2.25465971478163e-34 6.32994876154973e-35 -1.43517491422074e-11 -5.8462695114275e-12 8.80269264274008e-34 2.56042417109489e-35 -8.82741622206761e-13 -6.3285383257132e-12 -2.31143058237404e-16 4.95831522498889e-12 4.88809352191734e-13 1.89024783726759e-13 -9.03054954831429e-12 -5.9671868901226e-12 4.87015671701e-12 5.49434890255734e-12 -3.05825939795119e-13 1.66212524642963e-11 -7.52419164236902e-13 -3.41062500700268e-13 2.19990100989916e-12 -1.92324494651476e-13 4.4858056839922e-14 3.66885782052193e-12 -1.16803981268747e-12 -8.23786441056259e-34 -1.81196727406702e-33 -3.20456043717594e-15 -6.69711383296166e-13 -2.80002754365869e-34 -8.09318463221768e-35 -6.15597968183219e-34 8.92641022655675e-34 -3.30686179144225e-35 1.34485957688876e-33 1.99851799065847e-34 8.25201779104111e-34 4.93983357002623e-34 1.92777182772563e-33 -4.08376714468223e-13 1.129547813426e-13 1.17599902607215e-14 1.3176258308978e-14 5.93914627382948e-14 1.76504689513805e-13 6.8216288166919e-33 -1.0071497157686e-13 1.84321291287551e-14 1.23649206753944e-14 -4.06463333926029e-15 -4.51944664049347e-33 -1.4387121331236e-34 3.37395472097399e-33 7.06001907103866e-33 1.13845201684981e-33 3.9227779782436e-34 -6.91837679488842e-35 1.12046017445797e-33 7.39910712358994e-18 -1.15795140034279e-16 1.02436176152121e-33 3.69849538104579e-15 6.61037412750071e-15 9.16853873203123e-16 1.05125623539152e-15 -3.94020320164443e-17 -1.07316699206657e-16 2.63418880064468e-33 2.11000983424986e-34 6.18718004630138e-34 3.33722846198447e-34 -1.83843891148356e-35 4.15221107178073e-34 -1.4662686867158e-17 6.48320747283117e-17 -3.33711578608519e-20 -6.18634352228828e-20 1.21499037328065e-17 2.4276986053449e-19 9.50387182639819e-35 -7.94920370293851e-34 -4.83147621298872e-21 -6.64236032917757e-24 1.84866353472029e-25
