0.245798117085166 -0.0819223268477714 0.157384023193139 6.16080364412205e-33 -1.03700980930541e-32 -0.000205250534576252 -0.000391023563670486 0.00674996144588363 0.0016833292501318 -0.00041703099528815 0.000138913457971627 -5.17180956487496e-32 3.53237227916448e-33 -1.84884400106795e-33 4.58854924069243e-34 3.04629849863563e-32 1.09806551244938e-33 0.000852909940825488 -6.81709612758071e-05 -4.67198437391839e-09 -5.05184221987687e-09 -0.00024502844122207 -0.000526380005795971 -5.18757622488985e-33 0.000542629527613815 0.000168362544417709 1.2580022993065e-32 6.73303327683836e-34 5.30403974890461e-32 -2.77249618026548e-33 -9.9452836297851e-34 -2.39648266998564e-33 -5.52599677116103e-33 -4.10289704541686e-32 -0.000109454980267704 -0.000128957429536767 1.76547698630331e-06 7.49341816237687e-06 1.42287562826966e-32 -3.61271094522217e-08 -1.52285871300169e-07 2.87831217824033e-05 -0.000192876812751723 4.77217656446619e-06 -1.55133063654416e-06 -4.12196498070642e-33 2.09949168528615e-34 2.57797666078836e-33 -1.63621760668357e-33 1.4347634840261e-33 -1.89885472779181e-34 2.15672596145678e-34 3.32102440463813e-34 1.34223531623781e-33 1.31053487495248e-33 2.85722127087567e-07 8.2073931292171e-07 -9.39623484566521e-35 1.07887706823746e-33 -3.61049843684188e-09 1.14145628972031e-09 -7.06561167507721e-05 -6.56850082234649e-08 1.30615940435874e-08 5.1352064085426e-08 -2.82086532151962e-07 -1.4889376240107e-08 1.51697910245552e-07 -3.03455694663742e-07 -1.70667117624703e-06 -5.04188540053968e-07 4.4931300574236e-08 -4.54135996065043e-07 2.81996144813718e-06 -1.34361930271666e-06 5.69874247625128e-08 1.85876214725104e-07 2.03727351797593e-09 2.23915687108475e-32 -4.23363620935056e-33 3.3178677152755e-07 2.01617662975548e-09 -1.13141331266645e-34 1.20622412414148e-32 -5.13044509416387e-35 1.18682023889246e-33 9.20681282618501e-34 1.44033521103535e-35 8.75886701673405e-33 1.21593135649057e-33 9.84127801399481e-35 3.31669593047266e-34 -3.78749284981837e-34 -6.97759932169932e-36 6.60893468440835e-07 -1.44900767523179e-07 -1.65890324207514e-08 6.91421854234794e-08 3.08454710982436e-34 9.07823396496748e-35 -1.36803369462468e-33 -9.33212570586885e-34 -1.61739819654624e-06 -2.1947028674492e-08 1.61442779848673e-09 1.69938346433827e-08 1.29000080713214e-07 -3.51743021683695e-08 -9.94459802708323e-35 -1.26790766831547e-35 1.00750210215757e-32 -8.22493155056437e-34 7.28577620673885e-34 -9.65767680952569e-10 3.083459495232e-10 4.52380772453502e-33 -8.37654335660085e-34 -2.83007769074612e-07 -2.36700608590428e-07 7.8852161053159e-34 8.03535612127468e-34 1.74408096831503e-32 1.04657619559448e-32 2.85929145610351e-07 -5.01023769705865e-08 -3.16069413929559e-12 5.51181221699387e-11 -1.56999025495825e-34 1.73106236837967e-33 1.35614432265666e-33 4.19895398321352e-33 2.95511870704886e-34 -4.12923868084734e-34 -8.00264266381708e-35 -8.41085053526638e-34 -5.57618667093368e-35 1.14931819630624e-34 2.79690504181268e-36 7.22578742682354e-36 -1.75409644600615e-08 -2.6769391068898e-08 -4.53081090969167e-11 3.11581437605987e-10 3.22241469660344e-08 1.28929636599557e-08 3.56772364998441e-09 1.15174572480622e-11 1.79235078729571e-10 2.31462886614626e-24 2.77342189302657e-11 9.16616459416637e-13 2.90857984325986e-10 1.80801688476239e-09 1.60243920230948e-10 -2.12618112617916e-11 -5.32499483339919e-09 -8.05993992462796e-09 -3.04031030658832e-08 3.44658847407506e-09 2.09043669936247e-12 1.05739630343937e-10 2.82365498011022e-33 -9.40513030092912e-34 -4.06721045384511e-33 -2.67131091224365e-34 -1.13267843846152e-33 -2.01171752211025e-33 2.79985121950607e-33 2.49976220542052e-33 5.71714824437992e-35 -2.60634698413381e-35 -6.49111544796882e-37 2.87737644040752e-34 3.14893797344357e-11 -1.0381353208649e-10 1.5840306075308e-10 -1.07669903388133e-09 -4.44849980656016e-33 -4.96969006273533e-34 -1.46154300657706e-34 6.34521884597592e-34 3.08778576152032e-11 4.11872657766783e-13 8.15499141354275e-34 -3.36061609578108e-34 5.14549721132577e-10 -1.69276454188061e-10 1.52577581775575e-33 -1.08486757673567e-35 1.16184796421472e-33 1.11168462275481e-34 2.26093585817891e-35 8.77377515586622e-12 -5.41060528498379e-11 1.98778736314706e-11 -1.24622490750633e-10 1.3866047611099e-11 2.62456981007741e-11 -1.31655367292096e-36 -3.79484841275959e-34 -3.45595339141753e-34 -2.11878448631902e-34 -1.59244107017079e-15 -2.65030741957086e-14 -2.31522320610423e-10 -1.32381387459182e-11 -6.97021130263584e-34 -2.12153220436406e-34 3.39897718023317e-33 -1.83165529745129e-34 -8.96421667126035e-35 2.5125033607886e-34 -4.42785212067739e-34 4.56376314486145e-34 -1.07453223040179e-34 3.17564494748021e-34 1.22067116377199e-34 -7.56828162322561e-35 -1.43517491421647e-11 -5.84626951143964e-12 -3.1824914158951e-34 -1.88752021339401e-35 2.85939715166538e-12 1.01947202662518e-12 3.1059990546276e-13 -1.83783087229003e-12 -8.90614083559317e-13 -2.27652159287754e-12 6.76518291648826e-12 -1.24417279501206e-11 -2.26031196890633e-12 1.30330041728467e-11 -7.11543926995102e-13 5.10111702161876e-12 -1.27032638774329e-14 3.55832774067422e-13 -9.90605581807578e-13 2.99818209703259e-12 4.48580568189337e-14 -5.10083961682895e-13 3.01090196939129e-12 -1.71836702939079e-33 -1.51213830048253e-33 -3.20456043517741e-15 -6.6971138324081e-13 1.22734540663706e-33 5.99055431066054e-34 4.67993688421123e-35 7.04837433012583e-34 7.16769435357398e-34 -2.39941906889845e-34 1.74668202147847e-33 -3.64526807330216e-34 8.86345057814644e-37 2.9056397668355e-33 -1.37775828439492e-13 -1.57646104538148e-13 -8.76452405206667e-15 3.37007726152931e-14 5.93914627561695e-14 1.76504689537524e-13 4.72266610386362e-33 3.77991299500392e-14 -1.20081972374808e-13 1.07190834709552e-15 7.22837898987284e-15 2.11018280640688e-33 -2.75159717640481e-34 4.77344745981915e-34 -1.11172378229018e-32 4.10340765012797e-34 -7.80175437282417e-34 2.00539870355712e-34 1.34624755213939e-33 -7.75267402952074e-18 -1.00643355985042e-16 1.18036534787166e-33 3.69849536286475e-15 6.61037413012308e-15 9.16853877938527e-16 1.05125624261198e-15 3.32741194012969e-17 -1.79992847863686e-16 1.08667399767416e-33 -8.75339215179509e-35 9.14633879111086e-34 1.15036228160171e-33 -1.0379652841413e-34 -3.60970612618178e-35 1.84473509622619e-17 3.17220377665345e-17 -3.33711683028776e-20 -6.18634545040545e-20 -6.19320666297928e-18 1.8585880455164e-17 2.01323684855868e-33 1.43271602466922e-33 -4.83148327436364e-21 3.22499038291588e-24 -9.6828457988412e-24
