-0.00196398255909039 -0.161911807678304 0.157384023193139 -8.1538351648978e-33 -4.57993943731177e-32 0.000165504168706385 -0.0007617782669532 0.00674996144588366 0.00168332925013177 -7.8575342157624e-06 -0.000270260003100725 -4.92588404575654e-32 2.92662828524225e-32 -2.0398942012018e-33 -1.73848700329016e-33 4.4620298377422e-32 -1.17933599186814e-34 -0.000712361310213121 -7.23776693365573e-05 4.67198437394645e-09 5.0518422199421e-09 0.000245028441222062 0.000526380005795968 1.36895018340375e-34 -0.00085595629895499 0.000144964226923453 3.02699199291546e-32 -2.26519201229098e-33 9.69238350445086e-32 1.05941825955169e-32 -1.576737121035e-33 -2.639728136304e-33 -1.50281566223764e-33 -7.03494619978062e-32 -0.000330380249291038 9.19678394865727e-05 1.56376279364482e-06 -1.08226579423263e-05 -1.10705902665107e-32 3.61271094522886e-08 1.52285871300214e-07 -0.000242259698030861 7.81660070615415e-05 -5.6140328345677e-07 -2.65944264446384e-06 8.91101125056097e-33 1.93870500107462e-34 1.1855859698241e-32 -7.84367632611433e-33 6.96073748070022e-35 -2.4537812846604e-34 8.55322112322729e-35 4.31533961810357e-34 6.26208910236844e-34 6.71094594573329e-34 2.85722127087573e-07 8.20739312921706e-07 -6.99543625984914e-34 -9.92951846361917e-34 5.34996214479911e-10 -3.00403836161733e-09 7.0656116750771e-05 2.36110999512469e-08 -7.6234514131147e-08 1.31853775221751e-08 -2.71409762445848e-07 1.14916814640756e-07 -2.01319350746176e-08 5.25239921845891e-08 7.92091407158615e-07 -5.65380492281615e-07 7.17566564948096e-07 -1.32293313314519e-08 -1.96624181618892e-06 -4.08121671584553e-07 2.33081239913934e-07 -6.34583596176392e-08 8.84049900660302e-08 1.25446618692862e-32 -1.40976332197506e-32 3.31786771527582e-07 2.01617662975378e-09 4.07625787034262e-34 -1.3050338282829e-33 3.25233572933603e-34 8.10643530650981e-34 -7.00931667525277e-34 1.96389111786127e-36 -1.66097351771189e-33 -8.13617359722071e-33 4.28901749894225e-34 3.05678297780496e-34 1.97822697588375e-35 -4.6929121658533e-35 -3.35728350947784e-07 -1.8026434996983e-07 -7.40395935839835e-08 2.14864405813053e-08 2.07482949245623e-34 1.34522814135201e-34 3.72987019491128e-35 -1.71034169465454e-33 1.61739819654655e-06 2.19470286744909e-08 1.52589080785086e-09 -2.01341532497438e-08 -4.52231661783902e-08 -4.86026123665589e-08 -3.7702769675039e-34 -5.3549233782673e-34 2.8056134928138e-32 -2.22705506739244e-33 -1.02422746758727e-33 -1.50793483055397e-10 -5.06628248381033e-10 -2.64020512766898e-33 -9.85475689011865e-35 2.83007769074639e-07 2.36700608590471e-07 -1.36929810444236e-33 -5.77100686341548e-35 9.74827363232346e-33 -4.25140952230452e-31 1.09407882210249e-07 -3.45234650849965e-07 -7.78023026548779e-11 2.58448746240767e-11 5.31553843464435e-33 -1.18462520354435e-33 -5.91754655618841e-34 -1.54815544739172e-33 -4.45415746095171e-34 -2.16222128659958e-33 -1.34226530089759e-34 -1.52192861805353e-33 7.13847789167643e-36 3.39734947833562e-34 3.00145261122333e-34 5.69525327393355e-36 1.37029809697025e-08 -5.80133364986705e-08 -5.12035331868184e-11 -2.15069795316259e-10 3.22241469660396e-08 1.28929636599542e-08 3.74513584098619e-09 9.77020507539413e-11 4.46063748711199e-10 9.02387424510196e-24 1.08133096925065e-10 7.9855882830519e-12 6.51933762942933e-10 1.23541066859735e-09 1.32619808417777e-10 3.6218606181529e-11 5.32499483340056e-09 8.05993992462554e-09 -2.3185932262922e-08 -3.77058232890902e-09 2.06375971993421e-12 -1.09893826763685e-10 -9.40019322465567e-33 -1.34726102415087e-33 -7.97173248953642e-34 -2.0417093798731e-34 -2.01004832013208e-33 5.82844551385503e-33 -3.08101771327925e-33 8.05622078895093e-33 6.04575051358611e-35 8.34100443904846e-35 1.36055841457284e-37 -2.65431626975248e-34 -9.21361143365198e-11 1.98119619845358e-11 -1.79345861423542e-10 -7.38950111703784e-10 -4.1847008791219e-33 9.18214303196418e-34 -2.14176731360669e-34 -2.53249160647176e-34 3.08778576153635e-11 4.11872657761684e-13 8.54462559593715e-34 -2.55235892446574e-34 3.99348357529429e-11 -3.85208102701169e-10 1.35100619801495e-33 -8.71613850467923e-36 -1.3804989096511e-33 5.56628564946411e-34 -6.95329148652906e-35 -1.01034084528162e-11 -3.52288692414052e-11 -2.28200862843803e-11 -8.19245308351353e-11 1.38660476111934e-11 2.62456981007463e-11 -9.36398799865034e-35 -2.98255242898262e-34 -4.58944046796892e-34 -2.6975743947769e-33 -4.20852141802759e-14 1.39896989235288e-14 1.21918949807734e-10 -3.66679409165959e-10 -7.22810347882997e-34 -1.00208542418898e-33 -1.61196128075436e-33 -1.01395776753107e-34 -1.28091369770894e-34 5.87759141007106e-34 3.12352358900498e-34 -2.49604908052642e-33 6.12775273326981e-34 -1.32104321689324e-34 1.62586029905724e-34 -3.80354794981485e-34 1.43517491419166e-11 5.8462695113916e-12 -1.19391766600151e-33 -8.41974056990248e-35 8.82741622194324e-13 6.32853832579222e-12 2.31143063674873e-16 -4.95831522523188e-12 -4.88809352196676e-13 -1.89024783727789e-13 9.0305495483318e-12 5.96718689008531e-12 -4.87015671681019e-12 -5.49434890258127e-12 3.05825939809921e-13 -1.66212524644869e-11 7.52419164234825e-13 3.41062500742124e-13 -2.19990100989728e-12 1.92324494686572e-13 4.48580568450657e-14 -3.6688578205254e-12 1.16803981272307e-12 -1.37984228876923e-33 1.32191335069004e-33 3.20456043888218e-15 6.69711383312991e-13 -7.1867373620573e-34 1.42115187371663e-34 5.35278837723401e-34 1.48406161791314e-33 6.63719403274897e-34 -2.0321005941535e-33 -2.62945404069274e-34 -8.07607144109145e-34 -3.87129028508127e-34 2.13572504789039e-33 -4.08376714199965e-13 1.12954781342231e-13 -1.17599902594161e-14 -1.31762582990524e-14 5.93914627654834e-14 1.76504689527456e-13 -2.36133305193181e-33 -1.00714971581429e-13 1.84321291187914e-14 -1.23649206721768e-14 4.06463334793212e-15 4.59421689741339e-33 -9.38465976291872e-34 5.18103309632735e-33 -2.86526748012933e-33 -1.00879693952962e-33 -4.64615268938543e-34 1.30037949064585e-34 1.31440106704165e-33 7.39910710423071e-18 -1.15795141200269e-16 -9.15133020187334e-34 3.69849536490465e-15 6.61037412589332e-15 9.1685387175848e-16 1.05125624545235e-15 -3.94020309651602e-17 -1.07316697870071e-16 -4.5515141263839e-34 -1.14498617999915e-33 -2.70304877475448e-34 1.88062639210654e-33 -1.216800882596e-34 -5.84684538449856e-34 1.46626870053126e-17 -6.48320737631381e-17 3.33711660358248e-20 6.1863433550949e-20 -1.21499038229519e-17 -2.42769945922423e-19 2.28884913152423e-33 -4.9203125422609e-34 4.83145937722397e-21 -6.64164577489185e-24 1.84968267032417e-25
