-0.161911926195593 -0.00196386404180152 0.15738402319314 1.51335955253048e-32 5.9742912072155e-33 -0.000761778266953209 0.000165504168706394 0.0016833292501318 0.00674996144588373 -7.85753421667591e-06 -0.000270260003099849 5.41557770587673e-32 2.27256426198957e-33 -3.47717264485671e-33 9.20217580767021e-35 -1.53839454068536e-34 -2.79893000131783e-33 -7.50050767196486e-05 -0.000709733902830037 5.05184221991078e-09 4.67198437391462e-09 0.000245028441222074 0.000526380005795959 2.13344373584778e-32 -0.000855956298954996 0.000144964226923459 1.43318387142085e-31 -1.03047585815848e-34 8.40389820915142e-33 5.04962045359003e-32 -1.660568279624e-34 7.94063170585283e-34 -5.18629618374076e-34 -1.18089025475795e-33 -0.000330380249291037 9.19678394865711e-05 -1.08226579423264e-05 1.56376279364546e-06 -1.30377397961684e-31 1.52285871300263e-07 3.61271094523759e-08 -0.000242259698030861 7.81660070615433e-05 -5.61403283457729e-07 -2.6594426444643e-06 -3.40789425737432e-33 5.74922532043673e-33 -1.43289999327128e-32 -1.44538785377108e-33 9.16066337564957e-34 -1.81779335545092e-33 1.89990208015027e-35 -5.66738821715614e-34 -9.51030337427196e-34 -6.62908511527263e-35 2.85722127087622e-07 8.20739312921749e-07 3.72164958485886e-35 -7.07524858960559e-34 5.34996214475281e-10 -3.00403836162936e-09 7.0656116750773e-05 2.36110999513976e-08 -7.62345141313001e-08 -2.52206780077829e-07 3.13857059440984e-08 -8.56552562206347e-07 -1.70406672089076e-06 5.12665978417138e-07 1.15995491659465e-08 -1.20464500919831e-07 6.67021529593398e-07 -4.64401081078479e-07 1.243335288463e-07 -1.11528958474388e-07 7.92091407158136e-07 1.03938134050255e-09 7.28805410917455e-08 1.53427137332905e-32 -5.90803460723282e-35 3.31786771527366e-07 2.01617662987369e-09 -3.55495135571247e-33 -8.11147525796218e-33 2.11397850269937e-34 2.31255003637269e-34 -2.70460031263541e-34 3.91759088291335e-35 -3.59302581511909e-33 -1.05023367279866e-32 3.73347645090742e-35 5.84167969500362e-34 4.92262255076371e-35 -1.52607125979389e-35 -3.35725225942071e-07 -1.80267474975584e-07 -7.40393195012219e-08 2.14861664985216e-08 -7.90152128515379e-34 -3.61866402598627e-38 -6.08206717843915e-35 1.00930343843698e-33 1.61746227661903e-06 2.18829486018366e-08 -2.11638601273527e-08 2.55559768547695e-09 -4.8941764363446e-08 -4.4884014181459e-08 -7.32928400907963e-35 9.67854294009069e-36 1.87155199279614e-35 -6.49994999780613e-35 1.00821680272287e-32 -4.98386289428992e-10 -1.5903544199849e-10 5.76415409869217e-33 -8.72534191784859e-34 2.54134433190783e-07 2.65573944474034e-07 6.67382325904546e-35 -3.82035664017243e-34 -7.7229555671058e-31 1.95178860686987e-31 1.10192969358973e-07 -3.46019737998678e-07 2.59658641545854e-11 -7.79232921828366e-11 -1.42043599586841e-34 -4.31829604718076e-34 4.17283320117745e-33 3.74503096217174e-33 -9.2814258740362e-34 5.47799777313889e-35 -4.73617310483336e-34 -6.80105547552935e-35 -2.70858997142822e-34 1.55175377696638e-34 -1.07150031662999e-34 1.90524659845732e-34 -5.80115965002059e-08 1.37012409712396e-08 -2.15078698879202e-10 -5.119462962925e-11 3.2224367650194e-08 1.28927429757935e-08 5.07174374696062e-09 1.4284959351732e-12 3.5853822151916e-10 2.88820015239974e-27 1.58768436194158e-10 1.27279674990324e-14 1.42162801205371e-10 1.79720427769346e-12 6.06326194178366e-10 1.20425343574335e-10 5.32499041774812e-09 8.05994434026175e-09 -3.78215301155514e-09 -2.31743615802632e-08 2.06453530639294e-12 -1.09894602347656e-10 -1.35006503345885e-33 1.24696440735228e-34 1.73785084825567e-34 -1.28282075593202e-33 8.72843841252224e-34 -1.41200381420773e-33 -2.71755126322199e-35 -4.30324971949023e-33 6.19128919649725e-35 -1.58459232408167e-34 -1.26341749206484e-34 -3.45482513346152e-34 -9.21361210707098e-11 1.98119687196275e-11 -7.38949356610752e-10 -1.79346616515416e-10 3.36088559689267e-34 2.41647327755188e-34 -9.54693323484094e-35 -4.88001148727053e-36 4.11872752950892e-13 3.08778575196199e-11 -1.29708488742159e-34 1.71450434625202e-34 -3.85207711888318e-10 3.9934444946701e-11 2.31766465607688e-34 1.63945211087911e-35 1.82727204228054e-34 -3.14868993630673e-35 7.48314725231497e-35 -1.01141103763018e-11 -3.52181673177159e-11 -2.28228015587587e-11 -8.19218155607644e-11 1.40732770032059e-11 2.60384687096814e-11 -7.1836139076893e-34 1.53472542443358e-33 4.35920325058937e-33 -8.45245449888734e-35 1.39895325824574e-14 -4.20850478466749e-14 1.21920210895802e-10 -3.66680670254772e-10 5.40171149498728e-34 -5.49190960704173e-33 -1.80163317173129e-33 8.04767657420653e-34 5.59703087471021e-34 -9.20349574684375e-35 -4.87952407003735e-33 1.35555670268584e-34 5.23103295737596e-36 -6.23490607921554e-35 -2.39097845372637e-34 1.46463353367738e-34 1.4351749142584e-11 5.84626951144109e-12 9.45486458422396e-36 1.1287639893509e-34 -3.50977523656143e-12 -4.8701567169478e-12 -1.60388357278563e-12 -1.7379355722634e-12 9.67893473295521e-13 -3.32529574645634e-12 1.35199136741906e-12 1.16578472489474e-11 5.70682673215334e-12 1.54924617158948e-12 -3.53295808030205e-12 5.61910030773779e-13 -5.08400801453509e-13 -1.17206616081233e-11 1.92324494465658e-13 -2.19990100974198e-12 4.48580568144789e-14 -3.66885782022597e-12 1.16803981271148e-12 1.99081723255263e-34 1.40135646065068e-33 6.69711383287813e-13 3.20456043669108e-15 -2.92952000134527e-33 6.42592848987458e-34 1.1277692801789e-33 -1.40072320684634e-34 -2.17231356031959e-35 -1.29668396497869e-33 2.5263427375084e-34 -2.63548129608667e-34 -5.64461484186704e-34 -9.43614368293918e-36 -4.08376714437331e-13 1.12954781331965e-13 -1.17599902823249e-14 -1.31762583160556e-14 5.93914627608199e-14 1.76504689529368e-13 5.15853940914853e-33 1.84321291312468e-14 -1.00714971527339e-13 -1.23649206713992e-14 4.06463333277796e-15 -1.00553904406586e-33 -4.34428857826614e-32 7.74509717869789e-34 -1.70261368502473e-33 -1.57617748723796e-34 2.15226734417913e-35 -3.25437390515568e-36 9.5056086090888e-34 7.39910778953948e-18 -1.15795140864687e-16 -8.57577925561226e-36 6.61037412685048e-15 3.69849536574039e-15 9.16853872812649e-16 1.05125624603809e-15 -1.07316699093392e-16 -3.94020325338541e-17 3.15239373026118e-33 -4.11334540542816e-34 1.79944675223876e-34 4.23845558376546e-34 1.41327453448807e-33 -1.54933872642484e-34 -6.48320748528124e-17 1.46626855644443e-17 6.18634082090281e-20 3.33711577176007e-20 -1.21499037860904e-17 -2.42769920633875e-19 -1.26494833012567e-33 -1.95677491615281e-33 4.83147937064627e-21 -6.64269858416884e-24 1.85328376543385e-25
