-0.165824087879832 0.00194829764243708 -0.15738402319314 -5.55500388434456e-32 3.24955848311635e-34 -0.000258390683253529 0.000854664781500304 -0.00168332925013179 -0.00674996144588371 -7.71222353003874e-06 0.000285829760846573 -4.6542970014311e-32 2.14630140759509e-32 -7.71039819943765e-33 -2.69844620242122e-33 1.5436897668963e-34 2.96874604993162e-33 -0.00117259921782681 0.000387860238277139 5.05184221993885e-09 4.67198437397894e-09 0.000245028441222072 0.000526380005795964 -7.09621995851621e-34 0.000332097718521505 -0.00104308979055304 -1.12249366153241e-32 -1.05038567348109e-35 1.79004390216397e-33 -1.12634458102571e-32 -2.07676153379113e-33 -3.67694417559536e-33 2.27724895131265e-33 1.89245585843982e-33 -8.2216614852038e-05 0.000320629024656505 4.42773338168103e-06 -1.36866285303578e-05 1.89497833673832e-32 1.52285871300181e-07 3.6127109452349e-08 3.26639602055195e-05 0.000131429730763802 5.02310956040922e-07 -3.72315688396379e-06 2.1148513918083e-34 1.37086151192895e-33 -1.82083191401804e-32 1.84411553757e-33 -3.8726298308123e-34 -5.01503743858358e-34 -9.35462848802209e-36 -4.30813717888864e-34 -2.01110679622184e-33 -4.18713830551999e-36 -2.85722127087649e-07 -8.20739312921701e-07 9.36464573972404e-35 -3.50575331682722e-34 6.28060998313796e-10 1.8409811487978e-09 7.06561167507719e-05 3.68612129980831e-08 1.57622011818071e-08 -4.18529615169431e-07 -5.69346374478136e-07 -2.86276361068622e-08 5.14890367305545e-07 -9.85325712604804e-08 3.90597462978331e-07 2.62905788368889e-07 1.88802583790712e-06 -6.82864458083731e-07 7.68020641600501e-07 -9.88678019415511e-07 2.97746590100682e-07 3.66899148652979e-08 -7.60949465210818e-08 -1.34398170382727e-32 7.08964152867938e-34 -3.31786771527363e-07 -2.01617662987588e-09 -1.17371237550437e-33 2.02786881449054e-33 2.17113100524014e-34 -5.82627897513313e-34 -3.68766020812058e-34 -1.77775042266369e-34 -4.36613351913898e-33 9.45210305518798e-33 -1.19071561137816e-34 -1.38997456024677e-33 -5.06164090913775e-35 -2.22898317484799e-35 2.22631617904437e-07 -7.38624318822035e-07 -2.13798225572506e-08 -3.11733304454643e-08 -6.87329776478915e-34 3.89525058432074e-38 -6.1932140217334e-35 2.9815039152705e-34 1.61746227661902e-06 2.18829486018275e-08 9.04389316154842e-09 -2.76521556034356e-08 -1.27134960077992e-07 3.33091815330821e-08 1.46812584313926e-35 -5.66716846790964e-36 3.47770963408439e-36 7.41435181902062e-35 -2.01643360544575e-32 7.93927867190782e-10 -1.36506135757461e-10 -9.13782288555213e-33 2.29244908297363e-34 2.54134433190878e-07 2.6557394447411e-07 -1.99845978254289e-34 5.26033721992974e-34 -2.44819268050277e-31 -2.64888796605291e-31 -1.80136867316891e-07 -5.5689901322818e-08 -5.0950330943852e-11 -1.00709708760676e-12 -1.82880625775225e-34 -1.17210892709192e-33 -5.63988353373579e-33 -6.43061237583437e-33 -1.18150965071993e-33 -1.74079759109028e-35 -3.14142744706783e-34 3.99283423894866e-35 -2.62916918737938e-34 -1.30749529158347e-34 -1.77165227264257e-34 -2.97213717390017e-34 -1.83183999062883e-08 6.26287554352685e-08 1.27243198202045e-10 -3.93516526709131e-10 -3.22243676501955e-08 -1.28927429757951e-08 -4.64144997458367e-09 1.32355843154699e-11 -5.53943075554267e-10 2.35051240449916e-25 -2.29188194484655e-10 1.03370341691687e-12 -2.3174327887094e-10 -1.07834973581283e-11 -4.47633754234143e-10 7.54884879283121e-11 5.32499041774883e-09 8.05994434026257e-09 4.01088581981551e-08 -1.31523436063331e-08 -1.61718403396066e-10 5.38883363536357e-11 -2.61423834340797e-33 7.94634181155866e-35 1.15856723217045e-33 -4.87106751421105e-34 6.48838289901756e-35 -5.11010904189465e-34 -3.94754527078573e-35 -1.32031525484359e-33 -1.00440127042063e-34 -4.1871397891387e-34 1.23133728403574e-35 -4.33094800635844e-34 4.78394834301072e-11 2.44846689217137e-11 -4.38205017543154e-10 1.35650099067294e-09 -8.33477042062806e-34 1.30858940715561e-34 -9.16168657610763e-35 -1.77451364407819e-34 -4.11872752948969e-13 -3.08778575199826e-11 -1.85354368034929e-34 -1.51964396880305e-34 -3.01978711734089e-10 -4.32945552112877e-11 -1.4279019200911e-34 9.78208207284147e-35 -2.66299061797717e-34 5.26955127298069e-35 -9.20609764884368e-34 6.66661041832892e-11 -2.13338264890996e-11 1.54174046890501e-10 -4.94294297707746e-11 -1.40732770031826e-11 -2.60384687097545e-11 -2.39881809884652e-34 -1.90787435115861e-33 -8.85570424135479e-33 -1.36483716246169e-34 2.96320500219725e-14 -1.53653476199571e-15 2.57520172825122e-10 -1.27597134671839e-11 1.12030687277266e-34 -1.50463276905253e-33 1.82906920987948e-34 -1.06037573546637e-34 -1.05359616184389e-33 2.09165647029715e-35 1.6176683058276e-33 -3.93467459506743e-34 -6.66201337835717e-35 9.57126093563466e-35 1.26175729804142e-34 -8.55261264566821e-35 1.43517491421996e-11 5.8462695114465e-12 -1.28087535534217e-36 -1.06038882706172e-34 -4.71956839719002e-12 -8.4964964319707e-13 2.02554969695425e-12 -3.6146802432338e-12 8.70248386670237e-13 -1.93530745022055e-15 -4.75939117116742e-12 1.58549393980502e-12 5.55114860214252e-13 -3.02214897854543e-12 2.95726371494418e-12 -5.79644752761486e-12 4.75692557127777e-13 5.28110580230925e-12 -2.05507170292122e-13 -1.80206934503426e-12 -4.4858056815673e-14 -5.92453152875549e-13 -1.90836485484954e-12 -5.99972316659696e-35 1.5757454034583e-33 6.697113832936e-13 3.20456043266485e-15 -1.01922883380138e-32 -1.09451982906713e-33 -9.81067585196281e-34 8.18241019000165e-35 -2.36979661125773e-35 -5.75733475483395e-34 -3.06616390814418e-34 9.0433058668994e-37 2.21544886590514e-34 9.03049097032613e-37 -1.03019643335447e-13 3.9844157638448e-13 -3.44089066436832e-14 9.47265807596733e-15 -5.93914627681125e-14 -1.76504689536041e-13 4.41092500202555e-33 2.17744204099001e-14 6.05084220155408e-14 9.86398029321139e-16 -9.28668534482027e-15 1.78427874536203e-33 -4.17516785502463e-32 1.96354576361355e-34 3.07615287265948e-33 6.84845652526994e-35 -2.53052555216488e-35 2.96603351256647e-36 -1.17109246277815e-33 1.62240479320601e-16 -5.38444489523831e-17 -1.99780534105634e-34 -6.61037412388168e-15 -3.69849536010945e-15 -9.16853873898109e-16 -1.05125625419363e-15 -6.7231453277596e-17 2.13950180500331e-16 -2.83999435158665e-34 4.27107063697028e-34 -1.16256391296324e-34 -5.34611114090495e-34 -1.43897204061602e-33 -6.95181128860154e-35 2.13000304445112e-17 -7.14694171897233e-17 6.18634269778231e-20 3.33711704870206e-20 -1.26323138960932e-17 2.3963973273055e-19 -3.71227546184301e-34 1.34927943564785e-33 4.831477471534e-21 6.26890334020096e-24 1.88951248781682e-25
