-0.165824087879832 0.00194829764243707 0.15738402319314 1.53232618375454e-32 1.81955815006489e-33 0.000258390683253532 -0.000854664781500292 0.00168332925013179 0.00674996144588373 7.71222353003885e-06 -0.000285829760846579 4.43320649744539e-32 -2.99102115294037e-32 -1.67820566069806e-32 1.01964404001511e-33 2.33345667683186e-34 -3.4854653383165e-33 -0.00117259921782681 0.000387860238277141 5.05184221991905e-09 4.67198437395769e-09 0.000245028441222072 0.000526380005795964 -5.51489167883765e-33 0.000332097718521504 -0.00104308979055304 1.42666939927803e-31 -4.24488245331849e-35 4.37036853604907e-33 4.42847454493615e-32 -6.21277351403238e-34 2.85656797477554e-33 -6.44361927532814e-33 -1.66855114689333e-34 8.22166148520385e-05 -0.000320629024656501 4.42773338168016e-06 -1.36866285303575e-05 2.795883383549e-33 1.52285871300273e-07 3.61271094523145e-08 -3.26639602055204e-05 -0.000131429730763803 5.02310956040945e-07 -3.72315688396241e-06 9.2192714576029e-34 1.69259431574901e-33 -3.4610289800602e-33 5.69432973425333e-33 -6.49802814818176e-34 -6.68784792044045e-34 -2.92026919208203e-35 4.99475360067626e-34 1.17933419745829e-33 -2.09981630053476e-35 2.85722127087599e-07 8.20739312921705e-07 2.11129712427694e-34 -8.02811830907449e-34 -6.28060998313839e-10 -1.84098114880691e-09 7.06561167507723e-05 -3.68612129980717e-08 -1.57622011817911e-08 4.18529615169411e-07 5.69346374478177e-07 2.86276361068953e-08 -5.14890367305455e-07 9.85325712604994e-08 -3.90597462978343e-07 -2.629057883689e-07 -1.88802583790713e-06 6.82864458083696e-07 -7.68020641600488e-07 9.88678019415526e-07 -2.97746590100682e-07 -3.66899148652926e-08 7.60949465210886e-08 2.363979120563e-32 3.09855315025764e-33 3.31786771527393e-07 2.01617662987736e-09 4.39839460864576e-35 -6.52016153548002e-33 9.30220683055273e-34 -9.2614261165411e-35 3.81202403609937e-34 -9.68656576961361e-35 -2.43772606121619e-34 -4.49631291166928e-33 -4.695955835342e-35 3.41383008470648e-34 2.76893507301296e-35 -6.09573701331248e-35 2.22631617904461e-07 -7.38624318822164e-07 -2.13798225572624e-08 -3.11733304454685e-08 -5.77821220050869e-34 -3.02250804273244e-38 3.78451836605032e-35 7.58844825388159e-34 1.61746227661895e-06 2.18829486018351e-08 9.04389316154624e-09 -2.76521556034223e-08 -1.27134960077939e-07 3.33091815330745e-08 5.11989161392781e-35 1.68134722253454e-35 -2.8629226587342e-35 2.68845699243004e-35 2.89862330782826e-32 -7.93927867191066e-10 1.36506135757111e-10 -5.90873990384331e-33 1.49389315878983e-33 2.54134433190816e-07 2.65573944474019e-07 -3.77568785484119e-34 4.43749117435414e-34 -1.19819549772537e-31 -2.30513386088045e-31 -1.80136867316908e-07 -5.56899013228679e-08 -5.09503309435048e-11 -1.00709708788168e-12 -7.18811151793089e-34 -1.80443084828624e-33 -1.53445191077089e-33 7.77340308266569e-33 -1.17727772480321e-33 -4.66322287915473e-35 2.04346037382484e-34 -5.75983036279479e-35 -7.56924303926454e-34 -2.06933660880452e-35 1.0573363685341e-33 2.98729122209181e-35 1.83183999062983e-08 -6.26287554352776e-08 1.27243198202513e-10 -3.93516526709899e-10 3.22243676501811e-08 1.28927429758021e-08 5.07174374696307e-09 1.4284959351062e-12 3.58538221518149e-10 2.88933938274984e-27 1.58768436193567e-10 1.27279674915027e-14 1.42162801204425e-10 1.79720427783125e-12 6.06326194177074e-10 1.20425343574823e-10 5.32499041775342e-09 8.05994434027344e-09 -4.01088581981652e-08 1.31523436063391e-08 -1.61718403397638e-10 5.3888336354069e-11 7.21402912192426e-33 5.30418315921541e-34 1.12598252876565e-32 1.60422721420066e-33 -6.22590986821141e-34 -1.5042463252847e-33 -5.88382303962854e-35 -3.47499639990085e-33 -1.53236952269503e-34 -3.00043742341331e-35 -1.63462853178032e-34 -2.19534965696891e-35 -4.78394834297205e-11 -2.44846689216409e-11 4.38205017544556e-10 -1.35650099067186e-09 -8.43364597506338e-34 -2.10193493002714e-34 -1.40115459557411e-34 3.83418485122045e-34 4.11872752944028e-13 3.0877857519594e-11 -2.22478629359572e-34 9.65618027032344e-34 -3.01978711734111e-10 -4.32945552112885e-11 2.46551586603407e-34 1.91162325179969e-34 -6.48890761802855e-34 -8.79234798423924e-35 -3.5709385848647e-34 -6.66661041831035e-11 2.13338264891404e-11 -1.54174046891591e-10 4.94294297706871e-11 1.40732770032309e-11 2.60384687096042e-11 -3.06301639482885e-34 -8.84724068202886e-34 2.8575092174139e-33 -1.14176974506115e-34 -2.96320500237824e-14 1.53653476245009e-15 -2.57520172824973e-10 1.27597134677839e-11 -1.93970663593698e-34 -4.48568644273785e-33 -4.05138829988305e-33 -2.1720882378406e-33 3.20056384193571e-34 5.29254142597046e-36 -2.43313224688004e-33 -3.71104598242539e-34 -9.47202278915013e-35 2.10475281259339e-35 -1.83126873984118e-34 -1.51914541505503e-35 1.43517491424263e-11 5.84626951145074e-12 -3.12479845884863e-36 6.60825872268659e-35 -4.71956839716806e-12 -8.49649643143232e-13 2.02554969703381e-12 -3.61468024323042e-12 8.7024838670243e-13 -1.93530742265164e-15 -4.75939117119959e-12 1.58549393982259e-12 5.55114860309408e-13 -3.02214897853974e-12 2.95726371494253e-12 -5.79644752762812e-12 4.75692557116487e-13 5.28110580240111e-12 -2.05507170289974e-13 -1.80206934502633e-12 4.4858056805661e-14 -5.92453152868834e-13 -1.90836485487063e-12 2.07263163936986e-34 2.82615457295452e-33 6.69711383275752e-13 3.20456043471978e-15 -3.83736604342883e-33 -2.00917496936733e-33 3.74547765002505e-33 7.27244139813969e-34 3.45595339141753e-36 1.04942928006886e-33 2.14211688274107e-34 8.08790494239393e-35 6.56388786545656e-34 -1.36278286328003e-35 1.03019643290723e-13 -3.98441576397734e-13 -3.44089066673871e-14 9.47265808016961e-15 5.93914627626959e-14 1.76504689522864e-13 2.75122101821255e-32 -2.1774420410913e-14 -6.05084219932081e-14 9.86398031505545e-16 -9.28668534709238e-15 1.19416122122959e-33 -3.56210523327418e-32 -3.51801949314094e-34 -2.0940406661473e-34 4.54687826417349e-35 -1.79019323364397e-35 9.40093165781899e-36 4.00300208773618e-36 -1.62240478905352e-16 5.38444489201687e-17 -6.10022742847493e-35 6.61037411850052e-15 3.69849536920368e-15 9.16853872986108e-16 1.05125625495997e-15 6.72314530697502e-17 -2.13950179271612e-16 8.51998305475994e-35 6.33952225100151e-34 -2.04206878624848e-34 1.37637356825961e-34 4.6286454051658e-34 2.16879866505292e-34 2.1300030498855e-17 -7.14694178271126e-17 6.18634161641926e-20 3.33711699744906e-20 -1.26323136896898e-17 2.39639729400369e-19 2.05649452678524e-33 -1.76653291041573e-33 4.83148160888574e-21 -6.26840899524944e-24 -1.88934176000335e-25
