0.327736014075425 1.55663993644398e-05 -0.15738402319314 7.0554393005483e-33 1.03191231763603e-33 -0.000503387583699683 -0.000689160612793853 -0.00168332925013188 -0.00674996144588374 -1.45310686636306e-07 -0.000556089763946292 -1.09587952903431e-31 7.17247413823108e-33 7.50426731928327e-33 2.33831559105845e-33 -1.07586420854367e-34 9.78697465019114e-34 0.00124760429454644 0.000321873664552894 5.05184221992073e-09 4.67198437397171e-09 0.000245028441222084 0.00052638000579596 4.6880493824116e-33 0.000523858580433488 0.000898125563629585 -4.32961840876788e-32 5.45111350971838e-36 4.04129386163717e-33 -5.46135145589775e-32 1.07122308001926e-33 2.16841966648041e-35 -1.39815328306368e-32 -1.30525279033678e-33 -0.000248163634438998 -0.000228661185169937 6.39492456064586e-06 1.21228657367116e-05 -1.48404001373185e-31 1.52285871300364e-07 3.6127109452292e-08 -0.000274923658236383 -5.32637237022583e-05 5.90923274167238e-08 6.38259952842694e-06 3.76685576157189e-33 -8.53990768400638e-33 3.36907341525658e-32 -4.43896054229266e-33 6.0800359769181e-34 1.1489815832994e-33 1.09477570542773e-34 -2.95685226202873e-34 1.54403959708717e-33 2.15404017356158e-34 -2.857221270876e-07 -8.20739312921764e-07 -3.04212479803021e-34 -9.93735132825327e-34 -9.30647838349406e-11 -4.84501951041787e-09 7.06561167507721e-05 -1.32501130466533e-08 -9.19967153130625e-08 -4.31114444433463e-07 -1.05633994131904e-06 -3.20458106038507e-06 -4.24970275438144e-06 -5.20258427344845e-08 -1.02999550955673e-07 -4.01921500754319e-08 -1.03116448400593e-06 -4.48608791571789e-07 -1.62092403416765e-06 -4.80302270887316e-07 -1.38188608802744e-07 -7.44034462353316e-09 -5.85961527317138e-09 -1.60597089450646e-32 -1.7850704563282e-33 -3.31786771527419e-07 -2.01617662987291e-09 3.21586014965679e-33 7.82982681150516e-33 7.94769725407629e-35 -1.13943606161081e-34 1.17471554035268e-33 2.7313714342175e-34 5.60127597322761e-34 7.81111294144007e-33 3.04545338517642e-34 -6.36310877025675e-34 -7.81112390513864e-35 4.48292188554636e-35 1.13093608037616e-07 9.1889179379772e-07 9.541914205848e-08 9.68716394695426e-09 9.88249012703752e-34 6.57536565970368e-38 -2.57042875745014e-35 5.04605110876973e-34 1.61746227661924e-06 2.18829486018207e-08 1.21199669657994e-08 2.50965579179573e-08 1.76076724441395e-07 1.15748326483852e-08 9.3395698289272e-35 -4.59062686419759e-36 -2.80834936352604e-35 -8.44741788002547e-35 -2.43309463106081e-32 -1.29231415661676e-09 -2.25293062414081e-11 -1.14704738753239e-33 2.10531038232272e-35 2.54134433190875e-07 2.65573944474056e-07 4.18312292120833e-33 1.00872108979938e-33 9.32768168013085e-31 5.0425312291093e-32 6.99438979579115e-08 4.01709639321551e-07 2.49844667893186e-11 7.893038927069e-11 1.39721604554954e-33 4.31829604718076e-33 -1.58711503594866e-33 -5.11246003059629e-33 9.6372665209105e-34 -7.29762640497788e-35 6.96210109580813e-34 -6.60575941444851e-35 1.17985493001033e-33 -1.06992210545319e-34 7.09983506537874e-35 2.40836591245432e-34 -3.96931965939137e-08 -4.89275144640465e-08 8.783550067673e-11 4.44711156338502e-10 -3.22243676501863e-08 -1.28927429758013e-08 -4.64144997457257e-09 1.32355843154305e-11 -5.5394307555498e-10 2.35053180062614e-25 -2.29188194485453e-10 1.03370341690138e-12 -2.31743278870998e-10 -1.0783497358055e-11 -4.47633754233934e-10 7.54884879293069e-11 5.32499041775303e-09 8.05994434025807e-09 -4.38910112096985e-08 -1.00220179739457e-08 1.59653868090452e-10 5.6006265994463e-11 -1.7035093151966e-33 -2.37778997284332e-34 -1.50613740182158e-33 -6.02241507652979e-34 -2.32965510601176e-33 -5.71525353369796e-34 9.75039274255864e-35 9.41335876138488e-34 -7.10634233424161e-35 3.13063604145816e-34 1.00368729505257e-34 9.08470796995144e-34 -1.39975604501458e-10 -4.67270020211705e-12 -3.00744339067136e-10 -1.53584760718873e-09 -1.88544319527402e-34 2.02063176228919e-34 3.02495090803754e-34 1.45791853881985e-34 -4.1187275293875e-13 -3.08778575195121e-11 2.15406383120142e-34 4.33548359883026e-34 6.87186423623721e-10 3.36011026453598e-12 -5.45066294089126e-35 1.06646375079644e-34 1.03166958350588e-34 -3.14160239818619e-35 -6.38977537830196e-35 -7.67802145590795e-11 -1.38843408288185e-11 -1.76996848450503e-10 -3.24923857896504e-11 -1.40732770032546e-11 -2.60384687094734e-11 1.56321520306402e-33 -8.90742599279097e-34 -4.97704308138157e-34 1.01632663745142e-34 -1.56425174408362e-14 -4.05485130949403e-14 -1.35599961929121e-10 -3.53920956787257e-10 -3.74904486351854e-34 1.9936384189946e-33 2.19945572488007e-33 3.79650272419353e-33 1.92014294630843e-34 -3.3042220552219e-35 7.21320949483782e-33 1.93434179959338e-34 2.6626944337796e-35 4.62013054056086e-34 9.14783592902575e-36 -2.0764450169257e-34 1.43517491427434e-11 5.84626951151513e-12 6.85617797536196e-37 5.34826794963385e-35 2.00645427914278e-12 1.8306884063202e-12 4.44967355762361e-11 5.65812191143645e-13 7.11546151183947e-13 8.87755259893642e-13 2.57312194419644e-12 1.69876877757735e-11 5.43403956581698e-12 6.31704284824566e-13 7.14282154630852e-13 2.40433178019517e-12 1.75212086599003e-13 1.00703407689292e-11 1.31826758186147e-14 4.0019703547288e-12 -4.48580568350997e-14 4.26131097321611e-12 7.4032504222971e-13 -1.50674865888401e-34 1.45887368488925e-33 6.69711383321981e-13 3.20456042736815e-15 9.70403500445621e-33 1.70221701810603e-33 -5.15748146423279e-33 -4.60212235778365e-34 1.35275889892629e-34 2.11586854270779e-36 2.12099584324182e-34 3.12676511710447e-34 8.47179482235739e-34 1.43046018321026e-35 -3.05357071050599e-13 -2.85486795053363e-13 4.61688968872898e-14 3.70360024340523e-15 -5.93914627700941e-14 -1.76504689509548e-13 7.66304767301049e-33 -3.34229127541858e-15 -1.61223393569784e-13 1.13785226429202e-14 5.2220519947743e-15 -5.53785632395314e-33 6.42130246057586e-32 1.03631581968493e-34 -8.44621821206201e-33 -4.19734102586865e-35 -2.43455502249255e-35 -1.15658994551312e-35 1.52999072573598e-34 -1.54841371669298e-16 -6.1950692250235e-17 2.53726929417767e-34 -6.61037411827817e-15 -3.6984953749055e-15 -9.16853866811146e-16 -1.05125625272423e-15 -4.00852459158095e-17 -2.53352213645093e-16 1.76079649798372e-33 -4.77930261527864e-34 1.02103439312424e-34 3.69950225383634e-35 5.67526115758714e-34 1.68736324082774e-34 4.35320441010677e-17 5.68067313188418e-17 6.18634057820288e-20 3.33711666811721e-20 2.47822177996948e-17 3.13018871918833e-21 1.17485846241879e-33 2.14541824957277e-33 4.8314701765313e-21 -1.29119369830039e-23 -3.61931228465373e-27
