-0.161911926195593 -0.00196386404180151 -0.15738402319314 -5.44964181031684e-32 -6.15766349066977e-33 0.00076177826695321 -0.00016550416870641 -0.00168332925013179 -0.00674996144588373 7.85753421667583e-06 0.000270260003099846 4.12664286047551e-32 -2.30445738404811e-32 4.65271712037608e-34 7.75864292751141e-34 -2.80230902313869e-34 1.21431716085011e-33 -7.50050767196419e-05 -0.000709733902830035 5.05184221990779e-09 4.67198437394304e-09 0.000245028441222074 0.000526380005795958 2.38318253596717e-32 -0.000855956298954998 0.000144964226923464 -1.15456490900477e-31 -1.86095475847294e-34 8.10453448596547e-33 -3.62157643121816e-32 -1.69501989461603e-33 3.63340545246937e-33 7.90018462326515e-33 -2.01798566621365e-34 0.000330380249291037 -9.19678394865687e-05 -1.08226579423273e-05 1.56376279364626e-06 1.10151499400963e-31 1.52285871300053e-07 3.61271094523052e-08 0.000242259698030863 -7.81660070615448e-05 -5.61403283457643e-07 -2.65944264446321e-06 1.50051590620296e-33 -1.00576472150706e-32 -1.30893170469298e-32 -8.34836087953989e-33 8.06160211921102e-35 6.33341026947158e-34 9.04244943989973e-35 1.12989359859564e-33 -3.49850455414797e-33 3.7507832646549e-34 -2.85722127087618e-07 -8.20739312921699e-07 -7.77675559661002e-34 -7.77891287540658e-35 -5.34996214475444e-10 3.00403836161281e-09 7.06561167507722e-05 -2.36110999513964e-08 7.62345141312956e-08 2.52206780077854e-07 -3.13857059441076e-08 8.56552562206333e-07 1.70406672089069e-06 -5.12665978417155e-07 -1.15995491659093e-08 1.20464500919802e-07 -6.6702152959344e-07 4.64401081078497e-07 -1.24333528846115e-07 1.11528958474343e-07 -7.92091407158146e-07 -1.039381340505e-09 -7.28805410917477e-08 -1.79091689971412e-32 -6.68873918033144e-34 -3.31786771527421e-07 -2.01617662988076e-09 -1.59441804563409e-33 -5.82308163049889e-33 -4.21531007994383e-34 -4.59703514511949e-34 -6.06563529372287e-35 -2.34028748963084e-36 -1.32966876066338e-33 -6.3670416413419e-33 1.29855279270789e-34 -5.30361268099156e-34 1.50179518759116e-35 -2.3346786564301e-35 -3.35725225942094e-07 -1.80267474975487e-07 -7.40393195012174e-08 2.14861664985259e-08 -1.86765660694405e-34 8.75790048946634e-39 -3.80599050072117e-35 -2.9167971008283e-35 1.61746227661912e-06 2.18829486018346e-08 -2.11638601273563e-08 2.55559768547053e-09 -4.89417643634898e-08 -4.48840141814528e-08 -6.43032457165014e-35 -8.77350412545369e-36 -2.22724468250713e-35 2.72128724071585e-36 -2.97321077537663e-32 4.98386289434926e-10 1.59035441998544e-10 -6.46780501709439e-33 -1.84799466892772e-33 2.54134433190858e-07 2.65573944474099e-07 -5.88476349250638e-34 -8.27254149391185e-34 -9.01680118709437e-31 1.58410753803544e-31 1.10192969358987e-07 -3.46019737998628e-07 2.59658641541808e-11 -7.79232921828809e-11 1.6721429866145e-34 4.391552855124e-33 -8.32341073370186e-34 -1.40561852889407e-32 -4.80227864485722e-34 -5.29926121507357e-35 -1.94529478095991e-33 2.66630977765701e-35 1.20358669960424e-33 1.12755512847194e-34 -1.90050475817136e-33 1.6986387328627e-34 5.80115965002083e-08 -1.37012409712372e-08 -2.15078698879405e-10 -5.11946296276519e-11 -3.22243676501931e-08 -1.28927429757989e-08 -4.64144997457785e-09 1.32355843154604e-11 -5.53943075553818e-10 2.35048903567146e-25 -2.29188194484741e-10 1.03370341691414e-12 -2.317432788705e-10 -1.07834973580996e-11 -4.47633754233673e-10 7.54884879285221e-11 5.32499041775327e-09 8.05994434026071e-09 3.78215301156717e-09 2.31743615802686e-08 2.06453530575539e-12 -1.09894602347958e-10 -4.73186586157008e-33 -3.77451236049037e-34 -8.28375571001869e-33 1.91793142301891e-33 -1.63502866632468e-33 2.5012638994537e-33 8.61296253062681e-35 3.17853672462347e-33 -7.51479826434634e-34 -2.67784644381391e-34 1.09585695464475e-34 -5.99174390996654e-34 9.21361210714029e-11 -1.98119687196513e-11 7.38949356610742e-10 1.79346616516284e-10 -5.6009008904424e-34 -3.83085200616041e-34 1.88821329959888e-34 -1.86927600988713e-34 -4.11872752963941e-13 -3.08778575200742e-11 -6.5790313149416e-34 -1.13009218400191e-33 -3.85207711889555e-10 3.99344449466613e-11 -9.49803079861229e-35 -9.85064372416674e-35 -2.84999793828521e-34 2.29457042274091e-34 -5.40490955026207e-34 1.01141103761295e-11 3.52181673178035e-11 2.28228015575038e-11 8.19218155606142e-11 -1.40732770030881e-11 -2.60384687099699e-11 -8.96492603364541e-34 -2.80162621597581e-33 -2.65585316153034e-33 1.2527751369421e-34 -1.39895325811266e-14 4.20850478529189e-14 -1.2192021089592e-10 3.66680670254074e-10 -2.54168455743467e-34 1.76794350363672e-33 1.63930327935448e-33 -5.74726452993848e-33 -1.22785717896543e-34 -1.66273804836397e-34 -1.40551508539119e-33 -3.96995616724577e-34 4.4794071580716e-36 -1.77557873648043e-34 3.27818913354662e-35 -3.80460678251727e-34 1.4351749142428e-11 5.8462695114396e-12 9.89866409509733e-36 -1.59893383543579e-34 -3.50977523656059e-12 -4.87015671703508e-12 -1.60388357307185e-12 -1.73793557220549e-12 9.67893473262688e-13 -3.32529574648119e-12 1.35199136737227e-12 1.16578472490007e-11 5.7068267320789e-12 1.54924617158509e-12 -3.53295808030755e-12 5.61910030791483e-13 -5.08400801446364e-13 -1.17206616082159e-11 1.92324494463782e-13 -2.1999010097088e-12 -4.48580568244449e-14 -3.6688578203513e-12 1.16803981270747e-12 2.71351115943817e-34 6.40944869993665e-34 6.69711383279234e-13 3.20456043620007e-15 -1.47544054234421e-32 -7.43441791943884e-34 -1.80168019150532e-33 -7.05029872148144e-34 -5.77637923994072e-35 -2.15536629060297e-33 -5.58355774277441e-34 -9.92157824652399e-35 -9.21051016106951e-34 1.65853664017713e-35 4.08376714443083e-13 -1.12954781347408e-13 -1.1759990261501e-14 -1.31762583102013e-14 -5.93914627531045e-14 -1.76504689534388e-13 -1.74194156859653e-32 -1.8432129131673e-14 1.0071497157355e-13 -1.23649206748454e-14 4.06463333589623e-15 -8.41049032156325e-34 2.18007182303501e-34 -1.41334387776767e-33 -1.91953727730169e-33 -1.83914887763367e-34 -6.73304060886219e-36 -4.06111226120214e-36 1.19449857279099e-34 -7.39910713785065e-18 1.15795140585637e-16 -2.16486423054018e-34 -6.61037412412451e-15 -3.69849535949295e-15 -9.16853873215912e-16 -1.05125625029866e-15 1.07316698909938e-16 3.94020335196768e-17 7.80998446686328e-34 -2.29744860738447e-34 2.62840536843863e-34 -3.4051104990094e-34 -1.96326593527433e-33 -2.19174760370645e-34 -6.48320744245772e-17 1.4662686450252e-17 6.18634277328895e-20 3.33711579324664e-20 -1.21499037879906e-17 -2.42769922160966e-19 -1.70445913365329e-33 -2.97353050984006e-34 4.83147526343917e-21 6.64272749457053e-24 -1.85342146913523e-25
